66 100
sil -0.15899435 0.055487286 0.03335453 -0.027427929 -0.057252593 -0.098338224 0.096431814 -0.020009417 0.032465972 -0.024352241 0.051547963 0.010873072 -0.18501176 0.086623766 -0.023217395 0.01806781 -0.117138274 -0.2175764 0.22012435 0.1510104 -0.12988871 0.29400823 0.2502559 -0.08574187 0.018987393 0.16846067 0.0914961 0.086658165 -0.20920464 0.026910497 -0.14122707 -0.012399351 0.100258656 -0.16031532 0.04172689 -0.049028028 0.018723395 -0.027532661 0.10792761 0.0026822232 -0.06512338 -0.03648717 0.0048869723 0.09420934 0.09520378 0.024698397 0.023514012 -0.047270827 0.07300106 -0.016686501 -0.05032717 0.14935076 -0.013320468 0.07416083 0.050076097 0.08216469 0.06000576 0.009097452 -0.03682906 -0.09022362 -0.011817095 0.004447763 0.038157295 -4.851343e-05 -0.14569837 0.041940268 -0.16842936 -0.051266246 -0.09166665 0.077362046 -0.08818786 0.061689626 0.0047384747 -0.06779548 -0.05048092 0.17448506 -0.03289206 0.060465727 -0.14467973 -0.15927228 0.038018726 0.013266846 0.052312862 0.00026917915 -0.1583034 0.10861021 -0.021043187 0.11144264 0.18691728 0.03343145 -0.043524943 -0.07352158 0.09100236 0.10804233 -0.009254624 -0.06039712 0.118299775 0.17918494 -0.00172438 0.09841421
T 0.18808699 0.02431179 0.04819234 0.11209424 -0.0639366 0.10893552 -0.032809988 -0.09211676 0.053825676 0.21107061 -0.06748047 0.06552473 -0.15005654 -0.08658449 -0.021431277 0.086613335 -0.0017889985 -0.23440175 0.11663364 0.2197984 -0.17921397 -0.16810796 -0.039626587 -0.0574361 0.0471694 0.15902042 0.14713006 -0.055894613 0.06455348 0.12227914 -0.074895546 0.196044 0.13299525 -0.08996521 0.0535316 0.08383347 -0.005515074 0.09217829 -0.18132931 -0.04822967 0.019873293 0.2293866 -0.11745374 0.19009991 -0.033151824 -0.012556335 0.08316857 -0.062843665 0.021650694 0.015730236 0.0072585857 0.17835018 -0.06909517 0.02819951 -0.116018385 -0.016391566 0.13810454 -0.0014406809 -0.08821888 0.06721033 0.07982623 -0.080057904 0.027494077 0.083225384 -0.020561013 -0.047031008 0.22870952 -0.07564399 -0.049631927 -0.10201722 0.0034801676 -0.10333875 -0.032010153 -0.023356132 0.084256016 0.015171395 -0.016117202 0.122467384 0.033424065 0.011921816 -0.17853542 0.07605879 0.05792661 0.15758309 0.037550166 0.078172155 0.01420849 -0.07165449 -0.07711815 -0.029034948 0.013522153 0.14544554 -0.04007258 0.03385185 0.056896098 -0.041426085 0.008243413 0.032509394 -0.05075636 -0.075682536
N 0.18551758 -0.038716275 -0.06585054 0.005259203 0.036918335 0.13375883 -0.18080577 -0.028101718 -0.10502585 -0.0312679 -0.101749785 0.024437735 -0.021850111 -0.115626484 -0.03421153 0.05489884 0.038340017 -0.18895149 0.050273247 0.13708527 -0.17639495 -0.16265835 0.10404933 -0.014854006 0.280359 0.024715658 0.2542992 0.019255798 0.036911502 0.0198704 0.044655565 0.23849294 0.17950484 -0.043646228 0.018227644 0.062426746 -0.19678932 0.024226403 0.021988656 -0.12557298 0.1571994 -0.021249883 -0.13249102 -0.10212014 -0.15900451 0.13407393 0.07562777 -0.028634097 0.0804762 -0.04902943 0.027192667 0.060314268 0.029582048 -0.11090098 0.1370231 -0.017222885 -0.03719308 -0.055297013 0.046467192 0.10824191 -0.03307634 0.099621624 0.06452717 -0.012739238 0.02802805 -0.07354201 0.07265067 -0.00035841402 0.13192596 -0.005016265 -0.011994443 -0.04600394 -0.05633496 0.06957151 -0.03817049 -0.14919211 0.1023172 0.12747338 0.091393664 0.039212205 -0.1635619 -0.040880907 0.0085827075 0.022470867 0.051686198 -0.027020251 0.033792723 -0.19466482 0.0015367656 0.03452254 0.106366746 0.09629898 0.07197347 -0.13004698 0.08807216 -0.080372036 0.10202145 0.0363086 0.1309361 0.008466545
S 0.078638054 -0.037403196 0.0025387814 -0.012923213 -0.10352584 0.024122348 -0.26318634 -0.33807117 0.13654071 0.026295712 -0.1298527 0.09297828 0.005855562 -0.067535475 -0.16145203 0.13895996 0.026825413 0.08163761 -0.024353161 0.19321074 0.011282932 0.05718276 0.112989 0.010899494 0.14290747 0.018364556 -0.017658506 0.05955733 -0.062390596 0.028337823 0.13220185 0.11124815 -0.047069356 -0.03570883 -0.046481166 0.033436283 0.034627076 0.22136813 -0.09382581 0.10483558 0.04946714 -0.08049392 -0.08369896 -0.013585226 -0.09028033 0.051838256 0.059165962 -0.21103446 -0.08610381 -0.13899463 0.15861566 -0.06384837 0.050353404 -0.002564452 0.008930003 0.043887794 0.07654681 -0.03535464 -0.12076023 -0.046278708 -0.031711876 -0.009416295 -0.045286965 0.07753819 0.044395328 0.03177682 0.14518188 0.08566301 0.02663126 -0.058609363 -0.06055604 0.12784913 0.120208085 0.07812165 0.074399896 -0.18899962 -0.13165885 -0.06909516 0.04551293 0.012869407 -0.08973243 0.013461943 0.0073865023 -0.06278174 -0.0139678605 -0.07512686 0.086342305 0.0037479103 -0.0703819 0.074218735 -0.13161047 -0.13944593 -0.13872746 0.1850581 -0.11875342 -0.06465852 0.021307174 -0.041400384 0.11282881 0.1881544
AH0 -0.0012109744 0.13632482 0.123511545 0.079139605 -0.08263868 0.00022608328 0.03814363 -0.19276431 0.008744498 0.3246007 -0.22551231 0.02206276 0.03362183 0.03918847 0.124698974 -0.03495966 0.03157479 -0.0784315 0.03705432 -0.19659722 0.014842327 0.06767823 0.067663625 0.0087249465 0.07113641 0.12297981 0.021034988 0.2037884 0.04352834 0.045979682 -0.12249095 -0.13140404 0.051314928 0.08464918 0.13018177 -0.0151114445 0.0054925117 0.12834972 0.03417291 -0.023046723 0.0040960275 0.07127913 0.1440667 0.17167677 0.05239514 0.105746135 0.15957172 0.053124316 -0.12858106 -0.049749747 0.09114264 -0.11652682 -0.07449756 -0.016202081 -0.109905064 -0.054434236 0.12653229 -0.011851343 0.11911999 -0.077031165 0.025937885 -0.11110825 0.1332143 -0.07963689 0.10984299 0.06825902 0.04818165 0.08048437 -0.074458286 0.00021429086 0.022035558 -0.018973975 0.15678038 -0.089772396 -0.022623349 -0.11864417 0.016218957 -0.18772076 -0.00051854714 0.021755576 -0.10296069 -0.00445706 0.033773553 -0.0040352936 -0.08094756 -0.018633064 -0.07197783 -0.08203316 0.00941893 0.10103597 -0.13784721 -0.05102209 0.11115202 0.22817117 -0.05499849 -0.05558715 0.09820023 0.20519616 0.073695384 -0.0023172349
D 0.0771096 -0.0024278879 -0.09218063 0.13319814 0.010312315 -0.018391011 -0.10514985 -0.3096823 0.026833275 0.09700625 -0.037709158 0.07892726 -0.104544856 -0.060476433 0.024313625 -0.093937784 0.011831659 -0.16649736 -0.021820096 0.11167477 -0.14747044 0.037432168 0.044355188 -0.08426896 -0.010740937 0.109272376 0.09716119 0.016136894 0.11252852 -0.13661923 -0.09695603 -0.050997615 0.050299432 -0.024064789 -0.047994938 -0.03299709 -0.12609978 -0.007886967 -0.069423325 -0.18166588 0.025100144 0.111115694 0.07063743 0.007780755 -0.05781184 0.14212127 0.09470132 0.011668501 0.06917085 -0.2094218 0.0023874005 0.03617808 -0.30934635 0.07195539 0.04179379 -0.10531116 0.24094415 -0.17310207 -0.044091415 0.061707944 -0.06032577 -0.0009775198 0.08787104 -0.1477659 -0.16429193 -0.119331576 0.042972833 -0.034484427 -0.057297736 -0.0075301556 -0.06427262 -0.012623001 -0.13321835 -0.061667502 -0.078979015 0.18640889 0.09510659 0.06814027 -0.015234145 0.06368616 -0.03919736 -0.0021647995 -0.0052212654 -0.064200334 0.06152865 0.08854899 -0.009518463 -0.09074788 -0.18902217 -0.1535328 0.10808201 0.09453648 0.11229626 -0.072897814 -0.003278099 0.027318329 0.13372482 0.032897495 0.04775316 0.03190242
L -0.05748583 -0.06436298 -0.09179554 -0.012121219 0.063929304 -0.011420168 -0.0942822 -0.096013434 0.124742135 0.05340923 -0.19255884 -0.12266726 0.12475486 -0.038382906 -0.21500237 0.080649875 -0.054848935 -0.20008397 0.07550659 0.16461074 0.034700915 0.0045131785 0.09563808 -0.023779584 0.08997213 -0.056476925 -0.06888806 0.038579404 -0.05584578 -0.036120586 0.082080536 0.1362832 -0.017194921 -0.11257547 -0.08649575 0.07221827 0.03878726 0.23591666 0.063824415 -0.07630004 0.1607169 -0.15671848 0.008267272 -0.26426595 -0.03168248 0.09699742 0.12981072 -0.022437768 -0.023674294 0.11382575 0.036820143 -0.1869143 -0.1250561 0.06371121 0.09661048 -0.038333733 -0.08244299 0.107840724 0.07573513 -0.07575451 0.013718388 0.007748022 0.07583125 0.050747663 0.015210019 -0.11762698 0.06572374 0.015513399 -0.020089388 0.044594858 0.18343796 -0.07629232 0.1466658 0.13394317 0.15927926 -0.15959473 -0.04519883 -0.12665638 0.11740493 0.081946015 -0.00054518593 -0.14849168 0.025006052 -0.18127942 0.09339525 -0.045610845 -0.025443899 0.06251197 0.03038948 -0.0766403 -0.053173155 -0.13976687 -0.08269806 -0.02180126 -0.029677792 0.07112156 -0.079970844 -0.12633273 -0.015802816 -0.049693972
R 0.109042645 -0.079372525 -0.1427191 -0.0005185201 0.053803593 -0.02872913 -0.006443668 0.059983198 0.046353575 0.049248245 0.022375297 -0.22999406 0.1340085 0.02599891 -0.16471514 0.11445093 -0.00061807036 -0.23701182 0.28845528 0.13158259 0.07964611 0.11043694 0.18712868 -0.0021132268 0.04943293 -0.121932626 0.04856722 -0.13094899 -0.18281457 -0.004197674 -0.036381695 -0.09909927 0.07385467 -0.013436222 0.065497614 0.068654604 -0.090246275 0.05428306 -0.057791665 -0.13424683 -0.015002407 -0.30590054 0.10854484 -0.22031505 -0.11986874 -0.007538852 0.07933153 -0.020653535 -0.02361321 0.054863196 0.11477336 -0.05634604 -0.018119328 0.0036022388 0.13694462 0.08661507 -0.061292 0.17983593 0.036369827 -0.061294667 0.08980378 -0.01431465 0.07987349 -0.065790154 0.049954277 0.14738907 0.04880926 -0.07930124 -0.035991393 0.0076856287 0.031485733 -0.06577663 0.16416271 0.09059528 0.057271924 -0.12217802 0.05606814 -0.16594732 0.005164507 -0.03591163 0.044138566 -0.009366813 -0.062773 0.0826966 0.16193062 -0.08879453 0.026499324 0.03785334 -0.0021810485 0.06418039 0.123770416 0.043509725 0.025331847 -0.08984615 0.050954096 0.061628103 -0.031189432 -0.062337227 -0.03386818 0.011393287
IH1 -0.014463588 0.046859607 -0.010028328 0.1973529 0.012141237 0.033577166 0.100527205 0.06245526 0.18219627 0.06073852 -0.1222256 -0.022359021 0.07731611 -0.013315263 -0.03154277 0.07287645 0.2159931 -0.04515134 -0.014119695 -0.2298727 -0.08618818 0.089036964 0.09816664 0.084489815 0.054166697 -0.024549667 0.083452575 0.02094 0.079468 -0.116147 -0.029460212 -0.22365487 0.009865734 -0.13989578 0.117494665 0.16188727 -0.031067578 0.22000599 -0.009012885 0.04288536 -0.021184767 -0.12852292 0.029216766 -0.11438742 0.014913875 0.05599706 0.096944265 0.084723 -0.033043403 0.12199628 -0.16428585 -0.06098765 -0.011892724 -0.069129236 0.0013218924 -0.03225478 3.069425e-05 0.095528714 0.07249998 0.0088380715 0.16877072 -0.00015624064 -0.09943804 -0.083619826 0.02480609 -0.023660641 0.07611417 -0.08120924 -0.08592925 0.043389756 0.18464248 -0.0077998037 0.17143591 0.12492305 -0.10284802 0.020934278 0.064310394 -0.028581362 0.054447282 0.22453542 0.058687225 0.037010267 0.15872741 0.11750858 0.014934545 0.04998213 0.04624099 -0.07505784 0.20589373 0.03712027 -0.1416186 -0.04917167 0.030658005 0.083560355 -0.0960455 -0.019475287 0.21958908 0.16794156 -0.021690644 -0.048995644
AY1 0.06754149 0.00083412905 0.059945714 -0.14475572 0.028857358 0.07134744 -0.14394005 -0.09161639 -0.1154412 0.037537117 -0.041627195 0.0679913 -0.12243909 0.022180768 0.065745585 -0.023420336 0.14017457 -0.1263355 -0.0006860924 -0.19212502 0.055964515 -0.22240807 -0.0921853 -0.12102148 0.039758764 -0.08161277 -0.16230148 0.005649971 0.029484585 -0.004557663 0.03865385 -0.013373528 0.049885735 0.14730555 -0.045092557 0.11690278 -0.03743035 -0.054136116 -0.16956374 -0.13850033 -0.04765643 0.071614385 -0.1112263 0.05004902 -0.086140536 -0.0043756533 0.009926131 -0.11358565 0.11182131 0.017892204 0.11862525 0.13377644 -0.06481718 0.094737485 -0.061110433 0.0055822763 0.034697253 -0.006352972 -0.09619345 0.005769467 0.03936961 0.028220136 0.056560896 0.16643074 -0.028687779 -0.021170381 0.065296285 -0.061481196 -0.058236413 -0.12324361 -0.01160725 -0.04195999 -0.08765319 0.13583146 0.1607954 0.105734184 -0.0017583065 0.038941808 -0.03371626 0.056972813 -0.10431852 0.14022163 0.005684283 0.17971101 -0.083510734 0.05434298 -0.15031609 -0.24490765 0.06523208 0.11690596 -0.08960832 0.0327133 0.047047295 0.31262898 -0.0050231903 -0.12152898 0.19098626 0.1737915 -0.0012026076 0.07684481
EH1 0.065645844 -0.044909097 0.11979341 -0.1448929 0.013100557 0.029341528 0.07983761 0.016762057 0.13869148 0.06327726 -0.14306353 0.020277616 0.10155647 -0.040010735 0.008123179 0.114174105 0.05257218 -0.002683581 -0.04671245 -0.13034365 0.04412366 -0.018562755 -0.2251517 -0.09514534 -0.0668132 -0.03848685 -0.035781313 0.07685315 0.09765136 0.04148838 0.038282063 -0.08515193 -0.07997907 0.08034976 -0.122582644 0.21993506 0.033304375 0.022810949 -0.074746594 -0.03467823 0.064040214 0.059395317 0.03009787 -0.15334314 -0.02554468 0.16241695 0.03576667 0.099796586 -0.1267887 0.041686084 0.023238603 -0.15327786 0.06377045 0.0537439 0.087218985 -0.07751746 0.08336665 0.15626651 0.061105855 0.0015578724 -0.026207723 -0.14532587 -0.16542572 0.010097527 -0.023688834 -0.08258941 0.21520261 0.05287596 -0.1743731 -0.01596892 0.16777973 -0.010914504 0.0122991605 -0.0077226427 -0.08329285 0.041638743 -0.009680496 -0.14393777 0.11560938 0.2938576 0.16371556 0.0061288853 0.06080161 0.007849089 -0.0764137 -0.02359326 0.07161795 0.04991107 0.18590102 0.012530599 -0.16232765 -0.10785448 0.009431244 0.097935185 -0.23344006 -0.10172234 0.0470337 -0.02040961 -0.122364104 -0.09146221
UW1 0.27920341 -0.016080756 -0.08160594 0.15163505 0.0826913 -0.057059716 0.08163495 0.21434276 -0.1782391 -0.14724475 0.20880151 0.029571721 -0.13139087 0.060705714 0.08324694 -0.029303163 0.016396416 -0.040691715 0.06205042 0.042495344 0.09932353 0.038374115 0.017712548 -0.12921853 -0.033803772 -0.13746478 0.10338264 -0.082431674 -0.1254288 0.038024843 -0.016829025 0.048288282 0.06427914 0.11195988 0.03894896 -0.013898574 -0.090765245 -0.21643494 -0.1663018 -0.16732144 -0.013508551 -0.12695447 0.0025839128 -0.09772812 -0.11583289 0.022824928 -0.07748847 0.031103168 0.02345767 -0.10423775 0.067227066 0.1078944 0.12805969 -0.022058276 0.06095066 0.08542702 -0.032081116 0.08809449 0.016114874 0.05069602 -0.13274805 0.08366194 -0.10569414 -0.0012311811 -0.11789743 0.049520712 -0.07548721 -0.08851036 -0.10778257 -0.07614007 -0.025104225 0.010864947 -0.17696135 -0.008918202 -0.10387278 0.11802606 -0.07531297 0.01815899 -0.10837928 0.024307933 0.12587267 0.06970895 -0.11699085 0.19255291 -0.09041407 -0.051480237 0.06851263 -0.10493984 0.12459789 0.22563481 0.03824024 -0.0020543442 0.064856485 -0.045900013 0.024111474 -0.050235543 0.016780296 0.10429858 0.06833603 0.13080965
IY1 0.06269691 0.034880415 0.032556858 0.08714304 0.018005548 -0.07082727 0.037229385 -0.14216374 -0.049427334 0.1823726 -0.0034168232 0.103656314 -0.18230261 0.0486543 0.11958668 -0.03602132 0.060168594 -0.20711827 0.06537975 -0.1258056 -0.080800794 -0.01411734 -0.030867988 -0.17312567 -0.017060874 -0.006757269 0.024030173 -0.05042843 0.08930945 -0.07474093 -0.08415173 -0.1403447 0.07457342 0.081472725 0.11091605 -0.0018873536 -0.020464966 -0.15536784 -0.24569346 -0.119250245 -0.18297248 0.15384896 0.06678379 0.0024357939 0.018112697 0.019037293 0.062023357 0.094018094 0.062282052 -0.044198234 -0.041438736 0.1389377 -0.09144049 0.005079512 -0.15342543 0.01738068 0.083282895 -0.020468477 0.023627037 0.069326416 0.0033159459 0.012295625 -0.052429773 -0.044866264 -0.11666855 -0.011115933 -0.08488539 -0.14374672 -0.2532552 0.06375538 0.014632532 -0.0065734163 -0.10353008 -0.07733147 -0.08708305 0.15153174 -0.095003866 0.041120104 -0.11532535 0.14190336 -0.014478398 0.109672196 0.054406665 0.14226806 -0.02465014 0.08023538 -0.025378598 -0.15826645 0.084781654 0.049657214 -0.11933812 0.060962312 0.0815912 0.11439658 0.012837677 -0.062883586 0.20448126 0.25979245 0.024545971 0.08454185
M -0.05838436 -0.15215528 -0.09429335 -0.18522988 0.009211656 0.0714739 -0.14283831 -0.09972685 0.14868262 0.0051922416 -0.09415225 0.03260656 0.11485598 -0.10065964 -0.15310057 0.15188555 -0.015757734 -0.083705224 0.096724644 0.13738549 -0.07630781 -0.040647693 0.03994107 -0.07437654 0.13808802 0.036695912 -0.042398456 -0.0075064297 -0.083904825 0.06363366 0.057732303 0.0024581342 0.10003799 -0.11326622 -0.08955631 0.21208291 -0.073636875 0.14101158 -0.06605773 -0.10077297 0.122654095 -0.13161872 -0.15027532 -0.082753465 -0.004239974 0.18370777 0.19393201 -0.17462537 -0.018794946 -0.17834902 -0.012842431 -0.07460381 -0.13422151 0.15314387 0.16690905 0.067929395 0.047406822 0.009491485 -0.24325413 -0.1327037 0.1392691 -0.016466787 0.047291446 0.00998388 -0.004888747 0.010383753 0.16477601 0.04470823 0.040443566 -0.13166927 0.07398074 -0.012986073 0.121690184 0.115988076 0.029001685 0.046403777 0.08238784 -0.016325502 0.11858688 0.00045916068 0.047640845 -0.040658444 0.07981698 -0.1335342 0.059362736 -0.004470962 0.036890965 0.014507018 -0.110431306 -0.007344031 0.019707087 0.12385774 0.01166617 0.028238416 -0.05644936 -0.0955789 -0.042768843 -0.16746236 -0.055503596 0.0057982574
AE1 0.10610088 -0.017256552 -0.10947264 0.27296403 0.17533708 -0.027068594 0.08645545 0.041698925 -0.062172975 -0.05420746 -0.0438869 0.062161267 -0.06642355 -0.0055923313 0.084548295 -0.08390566 0.080898665 -0.19150807 0.022121398 -0.14703606 -0.007952242 0.07572561 0.11332415 -0.2897328 0.023160957 0.009412179 -0.047252554 0.048543084 0.17823784 -0.093094885 0.0386373 -0.20615116 -0.055175833 0.056660146 0.067337096 0.08538304 0.07816117 -0.032007616 -0.17303015 -0.086196 -0.011024021 -0.13739836 0.0019058749 -0.0056095026 0.09681646 0.18848626 0.08855976 0.04865428 -0.05194823 -0.05475819 -0.09513209 -0.055483863 -0.19414924 0.16656788 -0.03743896 0.05846252 -0.021295916 0.053481184 0.03485444 -0.1258087 0.01955988 0.029299006 -0.05633643 -0.07551464 -0.018271051 -0.012083415 0.02633208 -0.004609234 -0.16001634 0.049530298 0.10268406 -0.011138022 0.13255328 0.13833801 -0.067278504 0.16172747 -0.1269043 -0.10847522 -0.0021910602 0.16617125 0.031193716 0.007691438 0.10336268 -0.09876283 -0.09080246 -0.05582168 -0.0687913 -0.14306179 0.12447974 -0.032082226 -0.15606038 -0.07317692 -0.038173098 0.07998091 -0.13868928 -0.07154283 0.0799631 0.10539511 -0.020079967 -0.0043457327
K -0.20927218 -0.10857777 -0.13558139 0.17877145 -0.09591408 -0.003667979 -0.04762642 0.018412212 -0.023797598 -0.08417963 0.09082624 -0.11068458 0.11548872 0.002204501 -0.19692898 0.052614033 -0.1169272 0.03293132 0.029454166 0.08719475 -0.16002637 0.09656909 0.1455826 0.17910293 -0.040122904 0.00334348 -0.14765032 -0.03387707 0.05191455 0.02311613 -0.0857318 -0.17674126 0.0102494 0.0148805315 0.030671507 -0.036316615 -0.043663654 -0.00086681667 0.10161807 -0.033933483 -0.029338984 -0.016977953 0.02923513 0.007925385 0.05381808 -0.0074628633 0.10597534 0.11741194 0.02544735 -0.07621285 0.03771849 -0.0053224615 -0.19253576 0.10768235 0.027156513 0.07027747 0.09979288 -0.09180357 -0.09635796 -0.12179791 0.086434774 -0.18645997 0.22255956 -0.06508031 -0.07374482 -0.017628714 0.13227008 -0.10998555 -0.08383689 -0.17829272 0.11672702 -0.14491113 -0.087738656 0.026833123 -0.04471419 0.19067323 0.20349805 0.015879937 -0.08304123 -0.078205645 0.13396464 0.07282823 -0.046370253 0.09944047 0.14322938 -0.007915275 -0.094628565 -0.04510915 -0.0024371813 0.15178417 -0.08829184 0.027309386 0.049408298 -0.068898655 0.026963228 0.0763418 -0.091638416 -0.17440313 -0.11075496 -0.03354567
W 0.085218124 0.025856495 0.007086344 -0.0020953352 0.061201435 0.04214675 0.027018584 -0.26146024 0.12565698 -0.01575949 0.07372192 0.057797696 -0.020263275 0.004746747 0.09864406 -0.08633419 0.052556813 -0.06744967 0.08892868 0.20734075 -0.16553046 0.05472809 0.16444057 -0.10554956 0.042119138 0.049389508 0.09828391 -0.07628575 0.009294116 -0.0951875 -0.15459362 -0.04460678 -0.001170637 -0.14810903 0.0040953904 -0.034696102 -0.10611121 0.2237489 -0.16352575 0.025484195 0.10684106 -0.17313568 -0.00041000015 0.16360292 -0.0058391597 -0.009935964 -0.11905674 -0.12495958 0.0232458 -0.19059274 -0.08599506 0.017305559 -0.20950478 -0.0026874647 0.0029176376 -0.018478982 0.047660895 -0.104889125 -0.17939216 0.010918428 0.0061977995 0.168815 0.032303978 -0.08747815 0.06410039 0.04822229 0.10253343 0.06341373 0.09034721 -0.18830228 0.15533438 -0.03576467 0.033348866 -0.025470685 -0.1358661 0.14040543 0.014982684 0.13238074 -0.045709655 -0.08955288 -0.08347162 0.11584201 -0.07515035 0.1314251 -0.0038711308 -0.013655304 0.055332135 -0.10764839 -0.16456266 0.051422864 0.041726694 -0.032546494 -0.10929427 -0.031547774 0.03908863 0.122436665 0.11354669 0.014125543 0.14432272 0.005753652
AH1 0.03849231 -0.087144695 0.024498224 0.039758433 0.014973726 -0.045020297 -0.013146423 0.09082675 -0.006866396 0.095389284 -0.07843317 -0.038512602 -0.056933682 -0.049524598 -0.04125217 0.08226386 0.07901677 -0.04648192 0.0658661 -0.11810892 -0.02190812 -0.084921554 -0.08097107 -0.030060142 0.086700395 0.045676436 0.018659117 -0.0630438 0.09730137 -0.012876378 0.1415703 -0.071049124 -0.046093836 0.026702441 0.11599717 0.118507646 0.09823003 -0.08998399 -0.07943974 0.12846497 -0.21449547 0.056660786 -0.10398868 0.043015216 0.013436545 0.077383615 0.059397787 0.034499034 -0.004226007 0.15218806 -0.09425926 0.12204615 0.08450924 0.0046709357 -0.04402734 0.13068283 0.026076298 0.09643572 0.11373684 -0.09743239 0.05838917 -0.06163563 -0.1044892 0.00383762 -0.070327155 0.027489368 0.10647465 -0.119264916 -0.2119171 0.15957262 -0.0007554103 0.0185269 0.039924964 0.004202802 0.01716197 0.011934016 -0.12862393 0.04507817 -0.076183215 0.20482893 -0.09255416 0.10750581 0.09311937 0.1297142 0.061506152 -0.010274355 -0.015065807 -0.10797188 0.2576053 0.1788229 -0.35349002 0.050492026 -0.06491283 0.17962322 -0.13484293 -0.16545641 0.05007648 0.20506659 -0.06936009 0.016411422
DH -0.14508103 0.079562195 -0.07170792 0.33281645 -0.16296509 0.13033427 -0.25560012 -0.15287653 0.06418305 -0.044594485 -0.07861045 -0.0071954336 -0.025120368 -0.11083389 -0.13895422 0.02462308 0.01483194 0.041307006 -0.04948226 0.14063956 -0.11573427 -0.006626271 0.15698174 0.20064673 0.094412796 0.012499235 -0.078560784 0.021150135 0.13654208 -0.017009756 0.09726482 -0.036702313 -0.07109924 -0.07568738 0.041611496 -0.11366104 -0.09998999 0.19341466 0.06595066 0.024028448 0.016722076 0.038816787 0.013545593 0.042965546 -0.004578855 -0.00094689627 0.12638633 -0.07517067 0.0016060893 0.013373762 0.047315884 0.01796031 -0.21281393 -0.076422796 -0.1359851 -0.063229896 0.03804409 -0.24178074 -0.041221287 0.024282664 -0.018179834 -0.061848786 0.07275085 0.014763724 0.041566435 -0.09313844 0.07983022 -0.001315087 0.08806942 0.021552056 -0.036451608 0.016746381 0.028087493 -0.018612338 0.0121523645 -0.04308595 0.113191046 0.02155565 -0.02225255 0.008456691 -0.11334396 0.18386492 -0.07516353 0.17985043 0.055142615 0.056902606 -0.05829359 -0.21075492 -0.008553785 0.06250756 -0.26226452 -0.11325538 0.047301065 0.048820525 -0.0022156662 0.029143564 0.05412089 0.010810645 0.047229752 0.035256207
Y -0.08414328 0.020758145 -0.098658845 0.0984983 -0.006386933 0.012965448 0.04222467 -0.049932897 0.002289734 0.09668183 0.1858563 0.09812856 -0.15906245 0.02839555 0.06548872 0.0714121 -0.1046397 -0.15361223 0.09142313 0.08556182 0.03845334 0.08188391 -0.024059908 0.06849808 -0.10853446 0.11292522 -0.0634506 -0.17923917 -0.21343286 0.06280433 -0.10977468 0.04002761 0.0291446 -0.08165002 0.16510051 -0.028434621 -0.039226945 0.025860032 -0.2685968 -0.13795952 0.008894664 0.1980813 0.0011774824 0.053097352 0.02647824 0.055176992 0.0755554 0.0066473754 0.09480158 0.06569249 0.10223686 0.08649966 -0.095670834 0.15442899 -0.14390282 -0.013214833 0.11805344 -0.016058022 -0.11673775 0.03439811 -0.0009406971 -0.05409668 -0.124614984 0.016668577 -0.015813746 0.070138186 0.037633643 -0.07505929 -0.14164153 0.060899556 -0.2116882 0.047944896 -0.06904131 0.011961472 0.059083 0.07907996 8.767136e-05 -0.004807707 -0.094258495 0.0062429924 0.0039522923 0.12011904 0.07445896 0.2406946 0.008824791 0.16041666 -0.063062534 -0.072146535 -0.16362035 -0.19974682 0.08670647 0.17222533 0.02531855 -0.09244279 0.13597812 0.090133145 0.030213261 0.012657792 -0.13339427 -0.020862812
AA1 0.12930895 0.012291163 -0.11293084 0.20185062 0.03726954 -0.075289495 0.08526567 -0.15379445 0.043787464 0.054565337 0.0055967993 0.13649203 -0.12080077 -0.01340496 0.12370168 0.058467433 0.09145363 0.15959132 -0.10505307 -0.10318538 -0.015059603 -0.055652313 -0.10740794 -0.014073115 0.027842056 -0.026182318 0.1462202 -0.043379456 0.068747625 -0.091827326 -0.027394086 -0.00059224485 0.036466815 -0.006555097 0.09389848 0.0019691284 -0.02561846 -0.04313832 -0.112019114 -0.12201071 0.045306392 0.12184668 -0.11423862 0.028311696 0.008958856 0.18104678 0.12905431 -0.017126946 0.082168356 -0.04246331 -0.08632517 0.11398717 0.05717662 0.089799 0.21397465 0.06388402 0.10983901 0.11293448 -0.015715433 -0.07113884 -0.036560267 0.10051434 -0.19434738 -0.032741975 -0.19651386 -0.011039198 -0.006421914 -0.093261614 -0.2539942 0.074496806 -0.038860835 0.041006465 -0.039163772 -0.049376138 -0.18939087 0.07526639 -0.0506865 0.069650576 -0.096746586 0.13135906 0.073925965 -0.02581747 0.053143524 0.0020564662 -0.030151311 0.040572237 0.14032835 -0.038286634 0.22606677 0.012121025 -0.0004875178 0.039221946 0.07723994 -0.01635149 -0.04692583 -0.12492371 0.19889636 0.24750882 0.12812324 0.084059656
OW1 0.20978637 -0.04135634 0.01454272 -0.005345469 -0.010064937 -0.019692998 0.12426169 -0.11512459 0.09886821 0.05920014 0.061913513 0.13698742 -0.12383154 -0.0055386224 0.13768335 0.053153396 0.09478414 -0.009585748 0.008297633 -0.03891537 -0.04139787 -0.015273051 -0.17846686 -0.16301465 -0.08541866 0.0118004605 0.11215722 -0.03960001 0.05476937 0.016753783 -0.1565317 -0.112837285 0.04055038 0.07170298 -0.017095756 0.18141335 -0.056749124 -0.0650852 -0.22157493 -0.13257982 0.0014501638 0.067910686 -0.092749536 0.09491941 -0.015753165 0.09570418 0.012115556 -0.05262878 0.027179107 -0.15507585 -0.047324967 0.11252465 0.031585064 0.12537563 0.10908473 0.029643254 0.18220824 0.13904859 -0.1834277 -0.019981448 0.06825319 -0.04433046 -0.16300227 0.0096131805 -0.20989032 0.042139895 0.08504542 -0.07577971 -0.21575503 -0.10408286 -0.04716833 0.038501758 -0.09323857 -0.038479123 -0.11715712 0.2356415 0.0076980437 0.024183106 -0.050988045 0.09273265 0.096764676 0.038855325 0.060684167 0.09613044 -0.09088271 0.09288705 0.15783776 0.06501382 0.07468708 -0.014359162 0.12562792 0.0908422 0.057425473 0.07265841 -0.07453464 -0.14845872 0.15320934 0.09349203 -0.016565822 0.038930524
IH0 0.12143434 0.027833054 -0.12649997 0.28453743 -0.14375901 -0.02454737 0.025544273 0.057489615 0.25762928 0.033279296 -0.007581233 -0.0039709406 0.023323026 0.049094364 -0.09875224 0.16545881 0.060865007 0.012194042 0.09822432 -0.038906552 0.097061284 0.079304926 -0.04740276 0.13879737 -0.096317984 -0.054711998 -0.02220977 0.09867555 -0.043398686 0.13337164 -0.049155492 -0.10729198 0.032298855 -0.10740053 0.09218576 0.051771797 0.12580782 0.06264699 0.009968895 -0.013250065 -0.12705848 0.027265087 0.0014721743 0.23008533 0.06124267 -0.16653745 0.088175975 -0.17510453 0.0765934 0.08309977 -0.07010173 0.1611594 0.0030338673 0.093346916 0.044320498 -0.026980886 0.090370856 0.14719966 -0.04751025 -0.11800855 0.06419448 0.03576624 0.13734402 0.09208644 -0.06860478 -0.017887013 0.010428869 -0.1592367 -0.05656718 -0.16035846 0.062972344 0.06877816 0.16796848 0.0396984 0.09441619 0.08608528 0.09217005 0.029223267 -0.08422982 -0.046632793 0.12007177 0.09590356 0.07361127 0.093007654 -0.13037544 0.0034471483 -0.0071222642 0.012250188 0.078517504 0.19817357 0.056702923 0.022146657 0.15917404 0.17207068 0.06614614 -0.035821587 0.045865975 0.16960357 -0.024393065 -0.0022425337
B 0.0447928 -0.033557754 -0.13239068 -0.018548524 0.009892154 0.014361136 -0.189932 0.04844443 0.013590402 -0.020199312 -0.110503264 0.02110663 0.14768381 -0.039230425 -0.19352221 0.05542163 0.035408136 -0.031107575 0.015749617 0.077541225 -0.09096929 0.06809901 0.35134017 0.09330542 0.13721268 0.053997986 0.0786148 0.066446505 -0.17244428 0.088528216 0.13420728 0.09525525 0.16506386 -0.10900375 -0.06518323 -0.0035641917 -0.13616337 0.08649419 0.0023152723 -0.13024051 0.12495604 -0.09164544 0.006010354 -0.13934803 -0.13372329 0.104048416 0.108972415 0.01568838 -0.057404526 -0.20989104 0.07120256 -0.04071509 -0.02532378 -0.010027676 0.105174 0.0014742692 0.050261643 -0.13964672 0.014115751 -0.022521708 -0.051633704 -0.029021556 0.13840666 -0.10907056 0.13410103 -0.0695345 0.14085458 0.07550099 0.113141455 -0.120766796 0.0763994 -0.0928909 0.016673792 0.18082444 -0.04960688 -0.051820565 0.15665258 0.020712206 0.13747887 0.01573026 0.11448625 -0.06362208 -0.030916994 -0.18506967 0.13259031 -0.14319524 -0.12817638 -0.08993725 -0.05741201 0.06753334 -0.004797359 0.048712913 0.043011334 -0.05975017 0.0037877217 0.005149606 -0.005599355 -0.12433559 -0.0024114503 0.011632068
Z 0.058583308 0.08194235 0.086812735 0.12811796 -0.08268413 0.031784087 -0.034793198 -0.16756 0.10320769 0.110701256 -0.20894441 -0.092918545 0.06337315 -0.033544276 -0.13095467 0.15495059 -0.0003370881 -0.09574297 0.13705201 0.12372757 -0.20027615 0.022308528 0.17221537 -0.0413893 0.13381873 0.09116565 0.035947356 0.10517598 0.071525596 -0.0102809295 -0.018895226 -0.0068992213 0.053239904 -0.064473785 -0.032944858 -0.13565886 0.06321054 0.13337648 -0.083914496 -0.008003848 -0.040939987 0.18942402 0.12832536 0.07554512 -0.0052402476 -0.026231335 0.11108782 0.04470153 -0.16168652 0.020415988 0.12879537 -0.00307021 -0.04836293 -0.107038245 -0.095633715 -1.9986084e-05 0.08333493 -0.05505886 0.103123754 0.07550786 -0.05625133 -0.113211595 0.080164775 -0.047021154 0.17996444 -0.004543085 0.16403684 0.11210796 -0.11126389 0.05309357 0.10895768 -0.15555392 0.21996403 -0.11343569 -0.04229382 -0.21219255 -0.056385435 -0.12619427 0.050104592 -0.026278619 -0.063132025 0.061378304 -0.039124053 -0.084516555 0.07674647 -0.10594184 -0.100956865 0.08785848 0.07404636 -0.0048636813 -0.21663629 -0.11190161 0.03499376 0.045166787 -0.09321296 0.032218453 0.08831701 -0.0070416536 0.034895346 -0.093026824
F -0.12838253 0.01495375 -0.068235904 0.1403714 0.0035224354 0.061196968 -0.026119642 -0.054981582 -0.0060113124 -0.12425505 -0.013002863 -0.1663195 0.22618447 -0.010236258 -0.101438895 0.123607665 -0.081946515 0.1409138 0.04912326 0.07101497 0.020771267 -0.0030320159 0.020073937 0.12619036 0.053814452 -0.019220527 -0.18261531 -0.017405024 -0.12929517 -0.058457874 -0.0040475335 0.014258933 -0.06323154 -0.07177192 -0.017797204 -0.16370682 0.022024972 0.24246502 -0.020850688 -0.10668067 0.1998685 0.053403575 0.07194199 -0.057394125 0.0067239 0.10156784 0.10760455 -0.044547103 -0.06225291 0.07542293 0.19428119 -0.15744793 -0.15817155 0.09200259 0.10286011 -0.05216399 0.006884837 -0.045538086 0.003999691 -0.0648957 -0.10834929 -0.010144447 0.075032905 -0.02609675 0.19299658 -0.020646572 0.23020917 0.176796 -0.056798887 -0.0031750295 0.110458985 -0.13639618 0.12883458 -0.048478536 0.010155 -0.12458013 0.065702915 -0.18138766 0.0110376 -0.02348868 0.04404515 0.09192556 -0.13944435 -0.010145238 0.119566455 -0.0782592 -0.126165 0.027382357 -0.0023171029 0.02033832 -0.19018239 -0.104480535 0.013629977 -0.067992024 -0.031202113 0.12136242 0.017254828 -0.13852943 -0.018003406 -0.11850917
V 0.085665606 -0.074997045 -0.12715296 0.026357042 0.097328484 0.02793673 -0.058313627 0.039102513 0.067591354 -0.13243525 -0.044174194 0.030163998 0.10459836 -0.066788375 -0.08267642 0.09333828 -0.049660567 -0.093747385 0.112909466 0.07214718 0.008223445 -0.0010752957 -0.012501875 -0.21218987 0.0055638463 0.020363655 -0.13619675 0.04661221 -0.13101166 0.0312805 0.10164002 -0.03497043 0.059728324 -0.11210915 -0.14839672 -0.041829925 0.013982811 -0.058018513 -0.23315978 -0.22288036 0.028457575 0.063207164 0.060335796 -0.007973155 0.021815486 0.16686445 0.099932626 -0.07080231 -0.10244146 -0.20401429 0.023452694 -0.08363896 -0.2324883 0.11379928 0.030517634 -0.050750602 0.06262767 -0.11895239 -0.07425582 0.0160888 -0.1569067 0.06251548 0.04619786 -0.10739023 0.10156965 -0.08738531 0.10610921 0.17023876 0.017922413 -0.05319923 0.0917494 -0.03238399 0.15184236 -0.033347104 -0.005198649 0.093991406 0.009883939 -0.08121194 0.07477532 0.042897623 0.18394966 0.0788844 -0.030785078 -0.19888178 -0.009864698 -0.09961999 -0.15191422 0.00025540896 -0.19894585 -0.036077294 -0.0803891 0.123129815 0.1632116 -0.07547519 -0.05603287 0.0055402033 -0.054213177 -0.16193964 -0.079783 -0.114199564
HH 0.081510395 -0.052985538 -0.14715236 0.20791212 0.030230045 -0.0421501 -0.14040409 0.091337614 -0.028397735 0.010367918 -0.0673772 0.09158979 -0.16979405 -0.08004268 -0.032163016 -0.031000309 -0.06735703 -0.253656 0.05009569 0.12715612 -0.023703068 0.011968238 0.06262412 0.011595355 0.08770433 0.101278976 0.0062017255 0.107570015 -0.12732695 0.1396198 0.08391829 0.20146345 0.020438932 -0.12549902 0.041833278 -0.045015942 -0.041056827 -0.053075917 -0.024951404 -0.11420955 -0.053232707 0.12081331 -0.024324192 0.1288231 -0.022139313 0.042031966 -0.015429779 0.020260513 0.14871211 0.06577403 0.019348375 0.16116379 -0.090843245 -0.027866112 -0.21010767 -0.1133593 0.03769913 -0.11669539 0.16554154 0.08157838 -0.17702912 0.049144506 0.15967509 0.043770786 -0.03342744 -0.1289991 0.02101409 -0.090288535 -0.011692185 0.011598447 0.021319956 0.05036975 -0.057213545 0.091220886 0.09132089 0.011211365 0.0035294374 0.19336537 -0.06814828 0.08574904 -0.08623767 0.001883704 0.08840689 0.057244096 -0.10473327 0.068811044 -0.23428018 -0.2815067 -0.05334698 0.056176875 -0.09135099 0.04581642 0.10103876 -0.036937583 0.117002316 0.05723427 -0.1171068 0.009031612 -0.058973696 -0.06493712
NG -0.07660059 -0.02361126 0.032318022 -0.08142674 -0.03413434 0.09914589 -0.12725694 0.19285955 -0.13989684 -0.06488088 0.019965202 0.0288052 -0.0051911925 -0.042745057 -0.12104271 0.16246878 0.0509705 0.0016117911 0.047377046 -0.078379914 -0.12640375 0.062106308 0.20817855 -0.0044894656 0.07109285 0.060813002 -0.006584269 -0.07908837 -0.14697878 0.049606707 0.06803315 -0.061774466 0.18232106 0.04046813 0.024838904 0.052517608 -0.11076562 -0.10202186 -0.16327348 -0.11661082 -0.042001043 0.07888998 -0.03222994 -0.20747703 -0.08013462 0.080942504 0.15003085 0.07886815 -0.12671058 -0.12753654 0.20922215 0.061502375 0.14436321 -0.02189744 -0.08750058 0.16115928 0.03318318 -0.12546082 -0.11268995 0.10503423 0.120740905 -0.1910516 -0.12155598 -0.018359741 0.14956324 0.13185893 0.091064304 0.060661253 -0.06483599 0.04240457 -0.18245815 -0.05260558 -0.005409948 0.116195776 -0.083606355 -0.069562644 0.0182992 -0.131918 0.14278711 -0.010184377 0.08922686 0.047094796 0.06949033 0.004769368 0.07065618 0.016540619 -0.08095036 0.010044059 0.052246805 -0.09544982 -0.107405186 0.098904215 0.06739946 0.033477534 -0.10450668 -0.1270729 0.09984847 -0.08942255 -0.14294569 0.08179753
EY1 0.08624217 0.03584874 -0.061656628 0.25660604 -0.07274115 -0.04980252 0.18932489 -0.009667154 0.08718326 0.15591839 0.06336837 0.10582684 -0.06737114 0.0504048 0.0012749999 0.060347665 -0.055466216 0.082937464 -0.102463044 -0.021008678 0.044222727 0.119165346 0.03850468 0.06528914 -0.1184922 0.00485519 0.11533753 -0.06089293 0.14440554 0.121103756 -0.031881653 -0.005016739 -0.031080531 0.09948761 0.16606219 0.048187904 0.13626818 -0.025365481 -0.10526379 0.03258388 0.054818403 0.06414395 0.006754887 -0.057448514 0.037166577 0.06587239 0.16244282 0.16097538 -0.08655042 0.014662456 0.0143815875 -0.049181633 0.10934015 0.12773715 0.06591222 0.08210727 0.07062869 0.20937835 0.036321938 -0.16835387 0.0024069524 -0.15807451 -0.19080637 0.0222846 -0.119280115 0.0033399533 0.08805576 -0.17205648 -0.25942013 -0.033043735 0.006459588 -0.032302853 -0.04629341 0.023528041 -0.15721378 0.039914917 -0.10107976 -0.093786485 -0.07617412 0.13571504 0.17766044 0.035372768 0.013970593 0.10968986 0.005471691 -0.0934474 0.1662878 0.012770868 0.21962692 0.021529907 0.0035501088 -0.116540514 -0.124066636 -0.047412332 -0.057555024 -0.019849215 -0.038837664 0.09708243 0.04619883 0.08555092
AO1 0.027380472 0.1026015 -0.0032810844 0.3530483 0.02183499 -0.040682726 0.06422794 0.29299942 -0.03170088 -0.05537437 0.044728987 -0.10452165 0.07978267 0.04367236 -0.03542496 -0.003683506 0.1297546 0.18188232 -0.11315703 -0.22089106 0.11965382 0.14010067 -0.0078096776 0.14175045 -0.12955318 0.011860385 -0.0017715138 0.016722633 -0.18546028 -0.08501664 -0.009568018 -0.0021947175 0.043195855 -0.14977992 0.10879376 -0.025287619 0.09740918 0.17643148 0.019514987 -0.016187536 0.054327406 -0.025919829 0.10675413 -0.23221952 0.032205828 0.039013047 0.15172349 0.030266201 -0.07456489 0.1250459 0.15623736 -0.035860933 -0.017998787 0.056313727 0.0030038194 -0.04238291 0.08014698 -0.023108603 0.08835444 0.039531052 0.01325885 -0.018537253 -0.020628478 -0.025815247 0.072151415 -0.023879174 0.20047382 -0.06010132 -0.11891815 -0.06761783 0.18386322 -0.005482677 0.030664846 0.07499893 -0.07781331 0.00823506 -0.09657058 -0.14154524 0.10122432 0.091950424 0.10610466 0.027612127 0.070490986 0.09189379 -0.07247476 0.046206634 -0.00077679806 -0.067567304 0.01507326 0.096096635 -0.14365548 -0.063907765 -0.00605408 0.057810247 -0.12869751 0.05145986 0.033367705 0.07669824 -0.10666085 0.04320845
G 0.034552764 -0.11867581 -0.11373894 -0.09598471 -0.06781396 0.010342683 -0.2141712 -0.06506954 0.046994366 -0.064359054 0.11777654 0.084977284 -0.025285067 -0.056798697 -0.07993308 0.07866002 -0.028286774 -0.05722952 0.038038198 0.1546808 0.016572783 0.053880867 -0.03905678 0.16544636 0.0015580833 -0.04522412 0.090882115 -0.08864681 -0.18028246 0.038455922 0.017275611 0.0784915 0.05939342 -0.056310974 0.060890585 0.09544503 -0.168816 -0.024905365 0.010320991 0.0077803372 -0.03618357 -0.11320899 -0.05355656 -0.09005349 -0.1368095 -0.03889717 -0.01450286 -0.14610243 0.16030547 -0.11391079 0.023119014 0.09926904 0.050878294 -0.012837967 0.07573539 -0.03888434 0.06655859 -0.07125059 -0.1266449 0.061556537 0.02452588 0.12714559 0.07928896 0.029606048 -0.09310586 -0.027347192 -0.068108544 -0.1347894 0.17781743 -0.12797529 -0.14353752 0.2172143 -0.15246506 0.09727691 0.04882665 0.036821507 0.11441927 0.17283076 -0.022007598 0.00912231 0.028841775 0.09015794 0.039094698 0.24382006 -0.030758357 0.082620025 0.12349767 -0.19784437 -0.16473354 0.20187548 0.1116284 0.10693015 0.074408524 -0.014391418 0.10588177 -0.04309236 0.04400435 0.065427616 0.0064737555 0.19693886
P -0.0449274 0.03185793 -0.10691464 0.054482896 -0.03924133 0.025465682 -0.059609134 -0.18167393 0.17596057 0.21045652 -0.16232751 0.07800431 0.14110306 -0.049528893 -0.03152152 -0.08695958 -0.036508363 -0.051973797 -0.066899 0.014503204 0.003631699 0.07313717 0.18142772 0.1459346 0.040967695 0.11884911 0.05522962 0.11023021 0.0679599 0.07033987 0.057968967 -0.022781536 0.0031152063 -0.096552126 0.04433318 0.0005235364 -0.06915722 0.1771111 0.10088809 0.02008039 0.13874033 -0.08473687 0.11205439 0.06824531 0.014646389 0.13733572 0.14370668 0.046105303 -0.08653012 -0.15908667 -0.1069531 -0.2260281 -0.24619855 0.0057951086 0.012333739 -0.13587356 0.076357655 -0.11678622 0.055733446 -0.12599316 -0.029030984 -0.0141882 0.16218832 -0.18676229 0.07998402 -0.12855893 0.05355272 0.03985284 0.20023185 -0.06480903 0.079461604 0.012788568 0.09442374 0.027678614 -0.0062233256 0.003471163 0.1620875 -0.0012602607 0.057900846 0.07824968 0.017710561 0.0020506228 -0.034871362 -0.0835935 0.10379658 -0.11787617 -0.03684881 -0.18903722 -0.20997603 0.05249598 -0.023236081 0.042370543 0.028397504 -0.04446295 0.047353916 0.084321104 -0.10832655 -0.0015221399 0.07181458 -0.039358288
IY0 -0.11054228 0.035219394 0.04677363 -0.14972147 -0.13392183 0.0037511045 -0.1981071 -0.07718791 0.09365509 0.12788433 -0.12823944 0.012813555 0.078559406 0.004146045 -0.101130635 0.08485101 -0.0057968195 0.04832037 -0.039371125 -0.13764305 0.21319894 0.002069815 -0.1434361 0.17007649 -0.0076884814 -0.024562923 -0.20997883 0.11774666 -0.22872104 0.072557956 0.11435206 0.026144668 0.01687506 -0.042672817 -0.043703236 0.003032135 0.030749464 0.058618955 0.035506222 -0.025403265 -0.068851925 0.116645545 0.108292714 -0.10093865 -0.05455918 0.010859107 0.14356369 -0.10381865 -0.016727487 0.039336927 0.22360261 -0.08946391 -0.04348102 -0.023516715 -0.07452018 -0.14330736 0.10585062 -0.10950821 0.037363797 0.062345482 -0.10093559 -0.0329345 0.10859958 0.071039625 0.049176794 -0.0757331 0.032269366 -0.0016477949 0.044264235 -0.03426184 -0.022119472 0.133284 0.044412795 -0.020632686 0.18666999 -0.10683891 0.03020026 -0.10508286 0.033420052 0.076969385 0.0416508 0.110902235 0.008081109 0.10259711 -0.07307911 0.03917489 -0.10830549 -0.13507675 -0.1555209 0.18572994 -0.16707551 0.027510995 0.17815071 0.24528462 -0.027049713 -0.010208471 -0.010328256 0.0738353 -0.016513443 0.10000276
ER0 0.008213961 0.002544195 0.028688287 0.09784105 0.12899116 -0.07015543 -0.059969902 0.09427424 -0.059511434 0.041354507 -0.14678021 -0.15406999 0.00054951134 -0.025883006 -0.012146843 -0.12628831 -0.00070070405 -0.33892623 0.14876524 -0.025077803 0.10828956 0.095148444 0.028409507 -0.14316857 0.051311057 0.076779686 -0.031814594 0.10239765 -0.100542665 -0.09876936 0.060476042 0.012364197 -0.06291404 -0.096419275 0.048183467 -0.007492117 0.08570238 0.07735356 0.06770674 0.0070753843 -0.06633007 -0.15335953 0.13824509 -0.11061342 0.03241482 0.12168162 0.026436575 -0.010685769 -0.0088519 0.18616182 0.044499367 -0.083322085 -0.19821903 0.0033750047 -0.11063623 -0.09553163 -0.031931497 -0.039589085 0.27186534 -0.0069412426 -0.08964334 0.08115441 0.1493939 -0.054374512 0.057068318 -0.052761007 0.023851953 0.011867178 -0.0060032774 0.15442823 0.12688853 0.06408681 0.13443421 0.0335461 0.12987058 -0.06500817 -0.15022722 -0.100446835 0.031190403 0.1167121 -0.16970359 -0.0025627632 0.07967492 -0.0032603294 -0.09854553 0.029873446 -0.1461998 -0.1692682 -0.061207302 0.060983036 -0.22226033 -0.08085953 -0.0031642793 0.10704476 -0.0763445 0.033712395 -0.03036651 0.116969645 -0.054574467 -0.029512215
AW1 0.2178729 0.035371166 -0.15406726 0.41564253 0.0392617 -0.033352073 -0.0136878155 -0.03598871 0.040886793 -0.021009106 -0.0648053 -0.01678772 0.031994004 -0.016216492 -0.040860474 0.09724643 0.10481033 -0.07361433 0.1092243 -0.095314465 -0.02140378 0.051631834 0.05511306 -0.109318905 0.03283789 -0.07866064 0.04495108 0.024588857 0.04800193 -0.12689067 0.02236082 -0.20288341 0.07503488 -0.036157873 0.10849701 -0.11560029 0.034532547 -0.07234255 -0.2003493 -0.14569838 -0.15382859 0.0502638 0.14492907 0.008075526 -0.0011481062 0.036594857 0.16763434 -0.02842396 -0.04893823 -0.08395141 -0.021120299 0.045455907 -0.1451958 -0.006402445 0.012533217 -0.0041835704 0.06561855 -0.03799629 0.075003214 0.030359915 -0.07266151 0.13869198 0.04933697 -0.14759332 0.04959929 -0.033148862 -0.02447633 -0.0154643105 -0.10581509 0.05261661 0.03332333 0.012298978 0.2009106 -0.058281988 -0.10194217 -0.0014964996 -0.04120075 -0.09556222 -0.043692812 0.090376765 0.097553685 0.15228787 -0.009397013 -0.016282536 9.0835465e-06 -0.09104102 -0.0424432 -0.104794934 0.0274073 0.12464816 -0.13785166 0.034308687 0.21584366 0.007874716 -0.036971565 -0.040354367 0.20791027 0.21997039 0.0796392 0.04003088
TH 0.19790703 0.006545369 -0.1380742 0.2856284 -0.083365865 0.021735528 -0.10297026 0.12321696 0.24956675 -0.17919141 0.0015025482 -0.0414536 0.064150706 0.0033121298 -0.20545737 0.1816436 0.08520803 -0.023615513 0.06407657 0.106959455 -0.023930894 0.05715264 0.017658485 0.074334815 -0.07641386 -0.1007816 -0.0131407315 0.07740544 -0.03641727 0.0795924 0.022146175 0.037704132 0.054487262 -0.20606191 -0.055987544 0.038584676 0.11577333 0.1413422 -0.019890651 -0.027040815 -0.06045782 -0.0053429008 0.002825625 0.0036160587 0.007198787 -0.20883055 0.021175241 -0.20041932 0.09295558 0.08533577 0.0096530765 0.19338256 0.009562452 0.065281 0.064796686 -0.064218834 0.052263137 0.049240906 -0.05559508 0.051746238 0.021569166 0.087456726 0.14427805 0.1418319 0.0029479456 -0.10811971 0.08982102 -0.111276306 0.034207813 -0.2236897 0.2196273 0.043036766 0.11850612 0.14336698 0.08276929 0.029674726 0.041382577 0.0922584 0.08225168 -0.059282064 0.1240125 0.0015319944 0.10053451 -0.020448979 -0.14502253 -0.007645449 0.0033785622 0.0021366328 0.005241105 0.06977606 0.12703797 -0.079927795 0.051058087 0.061588604 0.03547723 0.039154116 0.05363292 -0.010914754 -0.07126904 -0.011332942
JH -0.037556913 -0.009194299 0.043184027 -0.2117686 -0.027607098 0.11731726 0.029772663 -0.039848458 0.17405917 0.068309166 0.048324496 0.0156179685 0.16552384 -0.053510714 0.04867363 -0.0042885914 -0.004471552 0.19425249 0.031467173 0.110984735 -0.05605596 -0.11354762 -0.032998633 0.07528255 -0.047726996 0.06214694 0.06652034 -0.16038917 0.01583764 0.06725796 0.026242353 -0.027043095 0.0074117603 -0.1107592 -0.0062696747 0.059663173 -0.104571335 0.1243199 -0.05511152 0.08389559 0.13432132 -0.11203823 -0.102935694 0.16199008 0.024430169 0.084101826 -0.022729278 -0.09130488 -0.106605135 -0.20565104 -0.18972981 -0.046233997 -0.050373558 0.03244109 0.11648233 0.07246768 0.043248273 -0.08570181 -0.2125938 -0.14263201 0.10425751 0.02710278 -0.056004938 -0.09690024 0.10293002 0.059503924 0.15991436 0.13625398 0.18778084 -0.1638284 0.09884787 -0.057289187 0.010813013 -0.12698139 -0.121632785 0.1382839 0.114688024 0.08837591 0.0449858 -0.06040562 0.058349572 0.13656358 -0.1544013 0.14255819 0.12856653 -0.08309007 0.13755102 -0.019923259 -0.0723983 0.17602459 -0.10364652 0.12999551 -0.09094178 -0.011292274 -0.034621406 -0.035200767 -0.046017554 -0.0025129144 0.0073783984 -0.05258386
SH -0.16159423 0.00760984 -0.027783094 -0.018761987 -0.010813813 -0.001977964 -0.14115267 -0.28991532 0.041322023 0.23809847 -0.113164365 0.01505727 0.01449488 -0.01197804 -0.03136138 -0.16363414 -0.07353763 -0.115077265 -0.080176346 0.11724561 0.057659067 0.07850153 0.19192137 0.12009261 0.0059737107 0.011880627 -0.011885038 0.026930505 0.039997097 -0.037092786 -0.03394221 0.058544047 -0.051495627 0.034583453 0.043517236 -0.022797061 -0.11087068 0.2168534 0.12837952 -0.050313797 0.18390436 -0.1742309 0.13075684 -0.12100587 -0.061660547 0.060583647 0.10062617 0.079117045 -0.03637393 -0.07250174 0.047224075 -0.24281862 -0.2646892 -0.018128712 -0.06844962 -0.116662204 0.008328197 -0.07398566 0.061084684 -0.08634807 0.01702249 -0.043677036 0.17362946 -0.07730464 0.0035802375 -0.09340654 0.007754959 -0.026005307 0.08827535 -0.065921925 0.058848616 -0.05845172 -0.06709812 0.07938537 0.057195228 -0.051324233 0.071734525 -0.043868188 0.023473721 0.041172016 -0.07924445 -0.059901882 -0.065036915 0.002010835 0.13679492 -0.009825491 -0.040416926 -0.19232953 -0.16317412 0.0010560914 -0.04796412 -0.12498073 -0.082204975 -0.014384067 0.065910816 0.16803007 -0.14002863 -0.067856915 0.08795094 0.054165896
UH1 0.038720153 0.10598515 0.04177536 0.15065265 0.035342623 -0.08995655 0.18782675 -0.1024741 -0.18105122 0.19808672 -0.025325222 0.1074369 -0.17138918 0.13666421 0.14934167 -0.08047907 -0.052243907 -0.07928423 -0.073377684 -0.07328592 0.046715427 0.0065464345 0.095728196 -0.077193104 0.037986368 -0.014751894 0.07561461 0.06123272 0.02622342 0.04241186 -0.13813259 0.1669462 0.058225676 0.16652444 0.1188837 -0.06217887 0.04805351 -0.001339899 -0.05815034 -0.14841881 0.16893438 0.08872395 0.0050161947 -0.060863566 0.002982504 0.092298895 0.08503399 0.19584745 -0.002403486 0.044401515 0.062320985 -0.06977009 0.060192376 0.046113618 -0.0006599495 0.026505657 -0.054428272 0.20132728 0.13026525 -0.09830623 -0.08883045 -0.055959128 -0.09389783 0.044114325 -0.115353115 -0.03978494 -0.071213275 -0.07583851 -0.30432248 0.035393015 0.038703978 -0.15328993 -0.14993687 0.0010558716 -0.053549156 -0.03406986 -0.12453417 -0.07861588 -0.11174837 0.081971295 -0.0028625545 -0.11306816 -0.021399992 -0.04341485 -0.023406014 -0.029790284 -0.014759942 -0.0036635268 0.24997889 -0.019505316 0.0055872337 -0.14741132 -0.06498693 0.018521685 0.07603865 0.006575968 0.032678697 0.13255838 0.15678519 0.042093713
ER1 -0.004102747 0.09221168 0.02809363 0.19054088 -0.01298183 0.035932414 0.033643913 -0.14772743 0.04729687 0.1845598 -0.19980113 -0.023357073 -0.023637503 -0.052335467 -0.008952853 0.02328826 0.09520964 -0.045726612 -0.044679653 -0.07513055 -0.107038096 -0.0301658 0.12874319 0.009867474 0.11942462 0.03865656 0.13933934 0.012136633 0.2724088 -0.0929259 0.04696392 -0.052791126 -0.017791044 0.024790721 0.1037923 0.020132214 0.011283472 0.118926406 0.019892912 0.038951095 0.054671366 0.03879398 0.017495656 -0.08977949 0.0070945276 0.16110109 0.18937363 0.12110933 -0.09524757 0.11875227 -0.046159834 -0.06708078 -0.02950037 -0.03265635 0.060903057 0.04115535 0.012655076 0.072510794 0.15408576 -0.071768455 0.046008572 -0.099663205 -0.13598861 -0.07270185 -0.0016611817 -0.037310682 0.09590655 -0.020078916 -0.163628 0.20786558 0.030570475 -0.08423034 0.10486298 -0.019265657 -0.11461661 -0.117362395 -0.045440525 -0.10204533 0.040891174 0.18128906 -0.095236465 -0.0023650308 0.026565542 -0.0053900164 0.10542453 -0.047917962 0.06936675 -0.055641174 0.28402936 -0.06649945 -0.21465138 -0.12751587 -0.06325276 0.03913083 -0.13057321 -0.07680488 0.16442747 0.19438799 0.08453116 -0.0038093561
CH 0.08481285 0.020285482 -0.10233431 0.20284733 0.048080027 0.03392651 -0.111163594 0.10128715 0.10564199 -0.065626375 -0.16660452 -0.060350604 0.09708209 -0.08643909 -0.13692498 0.0076353606 -0.0013195173 -0.10846224 0.03231916 0.11127235 -0.05223834 -0.04006982 0.112994045 0.01544064 0.094536096 0.094017826 0.01496636 0.1338309 0.041591793 0.017597722 0.17640568 0.1387401 -0.004728325 -0.21354824 -0.0766456 -0.09993287 0.08628522 0.12241823 0.05209381 -0.012909302 0.046753395 0.07012074 0.058102135 0.04619553 0.008540253 0.07038518 0.0844672 -0.03783242 -0.023096971 0.07784527 -0.04499081 -0.012995435 -0.21232271 0.01163126 0.04233301 -0.13236429 0.025334775 -0.12113859 0.18649532 -0.012170146 -0.1863751 0.07885357 0.17776243 -0.07028142 0.12339444 -0.22550893 0.17428465 0.061842367 0.10859528 -0.00080140535 0.21311134 -0.0812875 0.14094155 0.039172187 0.045452815 -0.03823059 0.038165465 0.080586515 0.08381874 0.08185684 -0.023400607 0.047144577 -0.013644475 -0.14855488 0.022199575 -0.12077201 -0.1875294 -0.16244973 -0.054818198 0.039064668 -0.16466646 -0.032828674 0.036728896 -0.054402575 -0.023835555 0.075268365 -0.06597271 -0.023840513 -0.010568119 -0.16297062
OW2 -0.12965782 0.105046004 -0.01766713 0.08782174 -0.11717214 0.085768916 -0.007938502 0.0026193683 -0.04660869 0.06935037 0.1565642 0.0851421 -0.08975414 0.11163627 -0.033646073 -0.042426046 -0.06689375 0.040526405 -0.061231337 0.13896202 0.09946596 0.12497473 0.2697256 0.13665475 -0.06648324 -0.053365074 -0.087383926 -0.07964806 -0.009770657 0.18916503 -0.0417242 0.073161386 -0.014017594 0.103380784 0.10847998 0.03107194 -0.0037525762 0.178996 -0.017918656 0.014856041 0.19912465 -0.16162618 -0.034933917 -0.10437728 -0.013179181 -0.076237485 0.0956592 -0.009695237 -0.028466957 -0.017312301 0.17346397 -0.07381113 -0.035645228 0.118788734 -0.0640684 0.06859889 -0.08385136 0.060208138 -0.18010858 -0.15409036 0.069796965 -0.17695993 -0.061366845 0.1548883 0.013373944 0.062273055 0.0879224 -0.09975068 -0.02505219 -0.1951466 -0.023961514 -0.082244314 -0.12816535 0.15188573 0.024121923 0.033474956 0.024029711 -0.09851416 -0.029001832 -0.08842061 0.011386339 0.05588186 -0.09227326 0.18845543 0.0027107806 -0.024663642 0.048004158 -0.07548961 0.026155746 0.013874013 0.058744606 -0.17193504 -0.22032148 0.06211888 0.07686914 0.086458504 -0.12341495 -0.09504362 0.044947967 0.14037895
IH2 0.049071852 -0.08045487 -0.07890972 0.04138238 -0.045711476 -0.015639791 -0.054696035 0.15966797 0.16952223 0.0048932214 -0.100422375 -0.0468244 0.06910169 0.020210952 -0.21217188 0.21845113 0.12424961 -0.1461882 0.10857522 -0.1632592 0.08121396 0.15501328 0.047043964 0.0004913731 -0.0014662931 -0.06371239 -0.10227967 0.12089526 -0.13236049 0.07911147 0.035546374 -0.20341818 0.09023228 -0.048976164 -0.025054159 0.21101944 0.06165024 -0.002188552 -0.053371012 -0.094108865 -0.16660142 -0.06121516 0.044386107 -0.14647982 -0.021238232 0.0010748081 0.16974184 -0.038160164 -0.021007324 0.06446414 0.08207026 0.006166022 0.03186688 0.070584364 0.03928058 0.026732838 0.07210591 0.15266255 -0.009461832 -0.028421076 0.1187869 -0.11285355 0.024780191 0.030011939 -0.030623186 0.044235174 0.05390658 -0.12051694 -0.13386883 -0.049948722 0.047513943 0.048383918 0.20558298 0.19467606 0.0773612 0.024060456 0.063951045 -0.15318443 0.06814234 0.08456163 0.1716169 -0.009908259 0.20382445 -0.06286353 -0.08839998 0.011456744 -0.07824032 0.070160136 0.06003404 -0.01631801 0.055759303 0.048356716 0.17892085 0.16438943 -0.08356589 -0.07648034 0.07409192 -0.011315998 -0.15238777 0.005090009
EY2 -0.13326572 0.04922988 -0.024241887 0.08053132 0.06960795 -0.070481285 0.15031606 -0.02048874 0.038160507 0.043888986 -0.0021318402 -0.1548594 0.07950069 0.044245288 0.01652158 -0.025475685 -0.019765044 0.0759578 0.018680466 -0.01781641 0.075208746 0.034621485 0.04075544 0.13011648 0.022004293 -0.03211701 0.0054276767 -0.07854199 -0.07137083 -0.1290226 -0.012315593 0.009803949 -0.09435452 -0.08994824 0.07579624 -0.09561654 -0.0034901295 0.1836871 0.07726563 -0.0127820065 0.1514742 -0.09276976 0.09198446 -0.15044208 0.01683766 0.16322805 0.08330169 0.08666339 -0.015940536 0.20345369 -0.014410168 -0.14071158 -0.1034366 0.032317773 0.19897895 -0.023680912 -0.032806657 0.11632597 0.17553276 -0.1447966 -0.10766342 0.036412913 -0.07530764 -0.10070083 -0.030955652 -0.05787813 0.10477112 -0.02639171 -0.18031216 0.12992465 0.18546963 -0.108291194 0.00803494 -0.0882459 -0.10176166 0.008439535 -0.010259578 -0.04911878 -0.108187266 0.14435175 0.048338432 0.078863844 -0.13169187 0.14681979 0.1253905 -0.04013391 0.008387958 -0.08977254 0.24715826 0.14791213 -0.27288833 -0.14341488 -0.045994867 -0.043357287 -0.056843102 0.09187947 0.04190489 0.13040791 0.066249765 -0.048364926
AY2 -0.2410263 0.07595183 0.105333805 0.020517522 0.035383426 -0.0250898 0.060034446 0.047695298 -0.04434516 0.07117119 -0.116155684 -0.10095769 0.11101608 0.030369723 0.021347554 -0.1016551 -0.031052873 0.018932765 -0.069266446 -0.16949914 0.10913302 0.048657548 -0.0020563481 0.0743562 -0.019057779 0.06465919 -0.13992329 0.0827876 -0.051071912 -0.06006332 0.04773452 -0.00044719302 -0.1087158 -0.038867585 0.037555203 -0.035866156 0.08600786 0.19062996 0.13298714 0.05249257 0.12613457 -0.03527189 0.10848227 -0.13794225 0.08419413 0.16187522 0.08889237 0.11495259 -0.09713396 0.1754578 0.039791945 -0.2394003 -0.14119585 0.049431767 -0.036753356 -0.091005735 -0.0307306 -0.020985527 0.1871285 -0.1163621 -0.063938744 -0.06739143 0.021066686 -0.042034503 0.08322493 -0.10366087 0.11382761 0.07434449 -0.070970744 0.09529476 0.18220833 -0.053660925 0.029296463 -0.0134036485 0.024400111 -0.017160472 -0.052495975 -0.15389784 0.02531605 0.16123235 -0.00871965 0.039036512 -0.019447597 0.029268805 0.0050824503 -0.005146666 -0.115416214 -0.10225235 0.105099455 0.09086883 -0.3621189 -0.16532826 -0.07151816 0.12235892 -0.11657233 0.049002364 -0.02929911 0.062607296 -0.052472956 -0.064066656
AH2 -0.0159249 -0.0005888677 0.009839854 -0.05613655 0.060369294 -0.04635786 0.054435503 -0.13744986 -0.09658751 0.08008186 -0.013470441 0.043474093 -0.11135417 -0.0009672457 0.19145745 -0.10237596 -0.12401903 -0.12282278 0.011497111 -0.009234003 0.058762856 -0.14362477 -0.2691196 -0.07525765 0.01626082 0.04766612 -0.039200388 0.05973232 0.0115189785 -0.018068373 -0.053573027 0.10046333 -0.0326759 0.051188778 -0.019776668 -0.08037889 -0.031071784 -0.1230406 0.013928236 -0.1420725 0.036951475 0.21555048 0.020200944 0.13370962 0.02433547 0.19170704 0.008105748 0.02465825 0.13920604 0.04788577 -0.037126154 0.0033492013 -0.18386132 0.07767391 0.0866407 -0.13691671 0.093241245 -0.01424218 0.1232827 -0.031682443 -0.24308161 0.098070726 0.059842676 -0.030897668 -0.17555076 -0.14906734 -0.038474765 -0.008143284 -0.10116381 0.06545996 0.014984071 -0.007990276 -0.17353496 -0.21701568 0.0007153563 0.15331393 0.038836174 0.11078197 -0.17599152 0.110970624 -0.052827086 0.08128297 -0.0746294 0.105790876 -0.07648103 0.068029806 -0.0843385 -0.17783454 0.013807339 0.10161586 -0.08041584 0.06683673 0.16925119 -0.012419983 0.06440658 -0.010970916 0.037674926 0.17555018 0.06740744 -0.07127925
AA2 0.013759787 0.02137319 0.06179298 -0.18208472 0.025808327 -0.05735408 0.07223847 -0.07746904 0.1887196 0.28670686 -0.2642043 -0.009547941 0.11790049 0.01790349 0.010610561 0.056742117 0.0055461447 -0.12268551 0.09495231 -0.1600733 0.15733886 -0.00021067349 -0.11951914 -0.07391722 0.031389546 0.02549512 -0.027349716 0.16052952 -0.033344474 0.045316547 0.075600654 -0.05883007 0.014893626 -0.03702917 -0.022131907 0.078083985 0.11218278 0.020972557 0.0065052863 -0.029505976 -0.037848394 0.038289156 0.108629614 -0.00093871466 0.04897307 0.1751645 0.16307853 0.018901873 -0.11266288 0.04852289 -0.07925098 -0.17857124 -0.063597076 0.046435576 0.099323586 -0.08282239 0.05363961 0.12896344 0.1852497 -0.13276942 -0.075531416 0.013913213 0.021570409 -0.078866534 0.019875428 -0.07092437 0.01715559 0.053126685 -0.0742882 0.07688662 0.15793075 0.0034230966 0.22221453 -0.100816876 0.016360292 -0.049725894 -0.032627616 -0.14107391 0.019841664 0.18711032 0.08797389 0.0061547416 0.04522893 -0.11833434 -0.04420947 -0.09799635 -0.0401598 0.0036767472 0.07777004 0.11907678 -0.16827857 0.014281509 0.12159333 0.16028608 -0.11108759 -0.0729713 0.01958101 0.18823422 0.020055568 -0.08057042
EH2 -0.1012319 0.0543579 0.13057604 -0.17889693 -0.07233315 -0.0629644 0.093071476 -0.04952508 0.12025164 0.277933 -0.1519315 0.038932044 0.029336065 0.03135415 0.040757127 0.031111106 -0.04051391 0.07290933 -0.06758268 -0.13394034 0.14997739 0.015693478 -0.16682017 0.10093842 -0.01964336 0.0868175 0.02388652 0.106546275 -0.10613956 0.10157436 0.039923593 0.09915039 -0.007682908 -0.02828412 0.012833444 0.08593995 0.07675967 0.07346952 0.108150825 0.024052728 0.08979471 0.11101591 0.029439827 -0.09593874 0.021375757 0.21180364 0.1733457 0.051921915 -0.057240874 0.106261946 0.027714748 -0.14490232 0.056650713 0.06975211 0.14949168 -0.072728194 0.10753749 0.12686066 0.14174698 -0.14584023 -0.098596245 -0.099300474 -0.100747466 0.0071698925 -0.10036109 -0.09091931 0.09896634 -0.028602336 -0.16727638 0.06402917 0.08935392 0.027795028 -0.040280506 -0.12203856 -0.04581103 0.006372663 -0.0324484 -0.076116316 -0.017880209 0.20823812 0.07987012 0.006867443 0.015506345 0.039206028 -0.058874488 0.0035501055 0.05625914 -0.0102129895 0.18301451 0.14651203 -0.20541726 -0.05136679 0.040218037 0.1662223 -0.120898336 -0.09618896 -0.00335141 0.186672 0.013263372 0.019097324
OY1 0.08117705 -0.016119044 0.03872078 -0.019132437 -0.023487808 -0.037812576 -0.096493416 -0.13211463 0.124452434 0.19921923 -0.28329277 0.050332546 0.0069147595 -0.080258004 -0.008821244 0.01838182 0.05971972 -0.08251011 0.022476574 -0.103523314 0.0054238653 -0.04584108 -0.025398511 -0.081247635 0.14685225 0.08980573 0.06096401 0.17640841 0.120564476 0.030242786 0.15407015 -0.023280159 -0.009289585 -0.021856986 0.022350324 0.09713006 0.07285168 0.011629549 0.0367021 0.07837911 -0.09091052 0.009183224 -0.019401839 0.10486992 0.037057713 0.1829333 0.14051792 -0.046408962 -0.06868112 -0.013875215 -0.089568205 -0.026430203 -0.032623004 -0.014992578 0.020765983 0.007846584 0.080609314 0.010960693 0.14995255 -0.12872544 -0.036412034 0.011862881 0.04976253 -0.044742417 -0.027643254 -0.060241222 0.055983424 -0.00040196232 -0.04828651 0.080359556 0.09455223 0.08799371 0.15837005 -0.042479627 0.0041898903 -0.046984334 -0.09459248 -9.2297734e-05 0.008666644 0.17436275 -0.08848549 0.019038927 0.078319594 -0.06747654 -0.075692035 -0.08108069 -0.012191693 -0.16696712 0.13396335 0.21560842 -0.31034818 -0.029636858 0.04763803 0.25376225 -0.15816985 -0.1753927 0.034344025 0.24843363 0.072338395 0.051250808
AE2 -0.05565985 0.08101513 0.060893103 -0.027363608 -0.07347146 -0.04427339 0.06208006 -0.10435824 0.055083152 0.25119314 -0.15589525 -0.011466274 0.046728272 0.06461734 -0.031141981 0.039573103 -0.003923804 0.00069435255 -0.012829045 -0.10271 0.11923836 0.0899328 0.088744484 0.070138596 0.043374296 0.02916952 0.03302704 0.0970014 -0.04004904 0.060524974 0.013943133 0.018305434 0.017006977 0.05879983 0.058419824 0.06016793 0.05100932 0.1292485 0.07439365 -0.02902235 0.13658921 -0.03965022 0.060097344 -0.1671632 -0.026388833 0.20345905 0.23772134 0.06542587 -0.11435966 0.04909261 0.104658365 -0.18666728 0.011877412 0.081780456 0.17449218 0.008293392 0.054511253 0.1664349 0.116301134 -0.21235363 -0.045416053 -0.14204387 -0.055767953 -0.019501029 -0.058889642 -0.044488758 0.10593636 -0.027501948 -0.19873592 0.054682013 0.06051156 -0.049673636 0.028379267 -0.02041641 -0.02829858 -0.05777077 -0.021409439 -0.19656892 -0.013956621 0.16125499 0.064759105 0.006773945 -0.042761434 0.013232742 0.017672706 -0.08351042 0.044096667 -0.0073678894 0.24203613 0.14732148 -0.18880552 -0.13876018 -0.007396648 0.18547331 -0.12348998 -0.08871992 0.04849422 0.18116474 0.08317237 0.08714559
AO2 -0.21957439 0.028572462 0.06484703 -0.12290211 -0.009671742 -0.020900365 0.029821208 0.012054058 0.040984876 0.046665233 -0.041553374 -0.08583621 0.18812844 0.040479265 -0.029916786 0.008585128 -0.041729677 0.1624589 -0.076595105 -0.12394382 0.17208676 0.058280278 -0.11974639 0.14828008 -0.08320834 -0.007231333 -0.17484455 0.03214647 -0.20389727 -0.036347214 0.018089563 0.005077767 -0.055469655 -0.065663576 -0.042496994 0.018972 0.031178966 0.20396598 0.10958366 -0.025458002 0.18085386 -0.043242447 0.08527649 -0.23165539 0.020118522 0.17056234 0.1328685 0.013717793 -0.06892568 0.07245204 0.14246799 -0.24310684 -0.11143867 0.12132896 0.13332833 -0.096998595 0.059760015 -0.0021604553 0.026593402 -0.09523434 -0.06786378 -0.05536404 0.009036711 -0.007922714 0.029293733 -0.08568329 0.18536022 0.056657903 -0.06883621 -0.06154936 0.189367 -0.025436327 -0.022240097 -0.027530229 -0.00074638333 0.03633714 0.02735947 -0.16412933 0.050644815 0.12751804 0.14045049 0.051359974 -0.059534326 0.08212374 -0.0062474743 0.009295964 -0.015339212 -0.038405452 0.022149323 0.16492288 -0.24137236 -0.09851415 0.008570877 0.105793566 -0.13488378 0.04276519 -0.021416215 0.0008434498 -0.06520306 0.0074885027
EH0 -0.09732002 0.011502944 0.08909927 -0.1629061 -0.091309115 0.014372397 -0.047277916 -0.097812295 0.14224948 0.30669445 -0.20548144 -0.02177175 0.050989937 -0.008551334 -0.06048487 0.034109972 -0.05804173 -0.20493107 0.14091726 -0.0049550766 0.08344178 0.05734738 0.046484303 0.016988687 0.07531348 0.1289866 -0.04585325 0.10023067 -0.024449429 0.14941323 0.08059106 -0.042285696 -0.017227227 -0.013420456 0.045733113 0.1258677 0.05234826 0.10655759 0.047734562 0.06570682 -0.025571158 -0.03293357 0.0643514 0.027465003 0.016650788 0.17398143 0.19080594 -0.0067731743 -0.10457286 0.053468835 0.025981158 -0.14475338 -0.12541875 0.057681136 -0.011293592 -0.026306136 0.09095742 0.044986278 0.10133067 -0.19116734 -0.01582299 -0.15084182 0.062061265 -0.031285178 0.018144496 -0.017986968 0.14453487 -0.008290575 -0.04624878 0.036997158 0.06246407 0.0157196 0.11688088 -0.05164597 0.08861452 -0.007935178 0.017704228 -0.10713612 -0.016981749 0.14509122 -0.06129559 0.12643655 0.004672064 0.11914183 -0.0031808561 -0.054487895 -0.050836537 -0.13556898 0.048713993 0.19823584 -0.28285804 -0.010301593 0.020960167 0.25500044 -0.10334468 -0.08083936 -0.04626414 0.1508888 -0.023368333 0.0054208315
OW0 -0.120747164 0.082483314 0.025598528 0.068593256 -0.08847498 0.02076684 0.008254558 -0.07141842 0.054405954 0.147009 -0.044388406 -0.0133641595 0.038716953 0.05073197 -0.08227216 0.0863461 -0.014621406 -0.06169571 0.033746548 -0.0030280764 0.028799087 0.19252281 0.20406131 0.12195825 0.035817396 0.058733832 -0.0013402775 0.017365007 -0.1548456 0.048105538 -0.05540264 -0.0040475787 0.052667867 -0.035001516 0.103406355 0.050398517 -0.031535853 0.23608127 -0.03092856 -0.069517985 0.16660021 -0.06610114 0.0900477 -0.23709759 -0.036195744 0.18044315 0.24510016 0.053773083 -0.09946686 0.020431062 0.22151741 -0.16354017 -0.07663667 0.09379633 0.0659439 0.000640845 0.09124853 0.044481285 0.0044844295 -0.10431479 -0.0026436003 -0.17309509 -0.05225193 -0.019235315 0.028227009 -0.0029077092 0.20420732 -0.034850027 -0.18088259 -0.0371302 0.07227273 -0.04931226 0.011761792 0.051038142 -0.066218995 -0.019447444 0.019537495 -0.20710085 0.009592922 0.11894175 0.08607977 0.10092774 -0.014584031 0.18084595 0.016890654 -0.006212835 0.016862953 -0.10332929 0.123353176 0.11025504 -0.19475232 -0.13916634 -0.020015448 0.1277313 -0.094432 -0.0015048867 0.09090661 0.08499517 0.0060582077 0.1012205
UW0 0.1862914 0.013684197 0.06923936 -0.048935685 0.038814317 -0.09626466 0.15677597 0.02644637 -0.042214494 0.044524908 0.047086 -0.002887051 -0.07988482 0.07627533 0.047531217 0.018003581 -0.050664417 -0.13934857 0.15741563 0.11565698 -0.043458655 0.101643555 0.059240185 -0.21736039 0.00083747983 0.023680722 0.1754506 -0.0029325816 -0.10371894 0.026168214 -0.09752743 0.042585425 0.1113231 0.030895108 -0.027103791 -0.010285392 -0.012044026 -0.13226353 -0.1286604 -0.14256045 0.023871075 -0.012191178 0.06462327 -0.10386977 -0.057556633 0.13290188 0.026652036 0.092911065 -0.07486706 -0.12213202 0.048590418 0.03502951 0.051706653 0.025797797 0.16334172 0.073181145 0.088061094 0.1157076 0.05848994 -0.0310412 -0.1565826 -0.026396116 -0.083083816 -0.07120321 -0.14342232 -0.0081408275 0.057953868 -0.03403382 -0.26028204 -0.036217563 0.12073512 -0.10272434 -0.11964873 -0.16089214 -0.19787896 0.14959 -0.0996292 -0.033765685 -0.088688225 0.070739575 0.15930863 0.062573865 -0.11043341 0.0783761 -0.052910052 -0.07420844 0.078623526 0.049293637 0.23052502 0.2225223 -0.10921413 -0.051529802 0.049480803 0.03367866 -0.10861687 -0.08542454 0.07502499 0.14470708 0.074191116 0.07347515
AE0 -0.08429036 0.07451013 0.10239531 -0.05462215 -0.10104437 -0.043256987 0.07614853 -0.25169674 0.08283195 0.310798 -0.11080461 0.06651689 -0.032947704 0.06907304 0.075896606 -0.05745538 -0.0683939 -0.03556658 -0.010849223 -0.0060175825 0.09893065 0.064800195 0.007502931 0.019573066 -0.0074182055 0.06965256 0.026635919 0.09597924 0.005136091 0.09150395 -0.084693365 0.020850103 -0.013704551 0.07309639 0.07067371 0.05854363 0.023025367 0.14106204 0.043296173 -0.030893544 0.15784127 -0.03312378 0.042709686 -0.00030793136 0.038548235 0.1962829 0.18373694 0.027877737 -0.08290706 -0.052027136 0.025772529 -0.17479293 -0.11460422 0.116294704 0.09538154 -0.024820268 0.09771734 0.10860107 0.017821457 -0.24548174 -0.04270681 -0.11392795 -0.013705607 -0.00849838 -0.13021728 -0.052944224 0.08133258 -0.041098088 -0.178499 -0.051260322 0.09558616 -0.03308421 -0.064858176 -0.11131817 -0.05078916 0.08971462 -0.017391907 -0.11634169 -0.091743015 0.10823402 0.019726232 0.053406592 -0.07021599 0.09644143 -0.032754473 -0.024598729 0.07753732 -0.06763539 0.1492688 0.2059037 -0.18298303 -0.124365985 -0.025976492 0.21268682 -0.06301367 -0.06648174 0.006576949 0.19342765 0.11941253 0.09537995
IY2 -0.0787501 0.005737938 0.06968122 -0.22070122 -0.028334076 0.00057304587 -0.20160145 -0.18957913 0.03404811 0.2124249 -0.25756618 0.039926276 0.014790028 -0.06049336 -0.051716197 -0.0028251044 -0.017116494 -0.16725028 0.03840531 -0.0070651458 0.038634565 -0.03481852 0.03542893 0.012150182 0.17966387 0.09087224 0.009662213 0.13082074 -0.10443618 0.024202256 0.13084365 0.12120458 0.05547487 -0.04765181 -0.0061385892 0.03685093 -0.055499457 0.08675614 0.06490787 -0.025630465 0.03478355 0.00074061163 0.025988985 -0.10990226 -0.07255309 0.20763814 0.1740047 -0.033769682 -0.030933667 -0.035568386 0.07950185 -0.11130667 -0.099204205 -0.04438276 0.012340693 -0.09373964 0.069949076 -0.11152304 0.13821556 -0.024448901 -0.11547674 0.014536898 0.10701277 -0.028074812 0.028689172 -0.10464477 0.05410172 0.048376344 0.029413732 0.050355356 0.042158727 0.04204068 0.027226802 -0.0227763 0.057306707 -0.115184106 -0.006839243 -0.021252034 0.03555966 0.16109869 -0.08652767 0.058174133 0.010592493 0.023919396 -0.011470261 -0.00838678 -0.07662884 -0.23059262 -0.004438742 0.22857589 -0.2960884 -0.010577875 0.08266634 0.19640571 -0.07810933 -0.09171253 0.04957411 0.16973688 0.09081996 0.08251507
AY0 -0.036858443 -0.0115701975 0.006690468 -0.12238164 0.042972647 -0.044044908 -0.014842617 -0.21013647 0.034939054 0.17242998 -0.14349216 0.03037345 -0.0760239 -0.019070487 -0.007864232 -0.044800837 -0.15530585 -0.3214003 0.13643622 0.24368118 -0.10746222 0.023582537 0.117014445 -0.103145525 0.14362635 0.13843429 0.12948549 0.09794098 -0.07145427 0.03315762 -0.04321805 0.20885794 0.08582679 -0.112577364 -0.037999548 -0.0131272385 -0.06530928 0.059950784 0.07100537 -0.12645032 0.15866715 0.0013057155 0.018565696 -0.02693268 -0.031702667 0.23177269 0.10516017 0.039950527 0.050563462 -0.044686634 -0.04148363 -0.059926614 -0.19598041 0.042982247 0.14270465 -0.069672324 0.06302899 0.0066343485 0.12551406 -0.09356906 -0.18228681 0.043426313 0.11942362 -0.065551884 -0.12482824 -0.16484763 0.03766265 -0.012143393 -0.07052323 0.01801894 0.14830992 -0.09093941 -0.087458596 -0.10223348 -0.044753112 0.07923572 0.020210784 0.09356476 -0.07140267 0.09034398 -0.040412284 -0.0134713 -0.04845579 -0.01983151 0.0088056605 -0.009426861 -0.056031015 -0.11570766 0.07630357 0.11371371 -0.124475434 -0.042730153 0.057835657 -0.012393877 0.022598932 0.0031011843 -0.0015214778 0.107797615 0.103934355 -0.027893616
AO0 0.007404476 -0.012046965 -0.023678089 -0.06272851 0.047621176 -0.055029534 -0.025571387 -0.08897448 -0.031129632 0.08278069 -0.059831154 0.055752005 -0.06359899 0.013611543 -0.00036058514 0.025164424 -0.08810363 -0.2130147 0.064017884 0.061043724 0.056038734 0.060579717 0.0038952418 -0.07814972 0.08976085 0.05299283 0.0016059348 0.08584046 -0.2534295 0.038096294 -0.012969196 0.17635977 0.09697002 -0.07147393 -0.029540082 0.041791275 -0.066955075 0.05032999 -0.06247743 -0.21444272 0.16032225 0.031512514 0.028426765 -0.20940335 -0.067265876 0.29980978 0.17503941 0.011901873 0.04369637 -0.03723686 0.16483583 -0.08954811 -0.13008176 0.111368164 0.13815513 -0.07944053 0.1200211 0.017047554 0.06780767 -0.02968573 -0.20698224 0.021488689 0.017425066 -0.0013803594 -0.12531824 -0.132815 0.117078595 -0.037092008 -0.18577519 -0.03789126 0.122539364 -0.012296812 -0.12156202 -0.017238718 -0.03119627 0.09219785 -0.027441049 -0.035030063 -0.04827635 0.18422435 0.07660756 0.05963222 -0.019892588 0.103797376 -0.0935231 0.028283132 -0.06269122 -0.19220695 0.06507394 0.17347883 -0.16273578 -0.03421496 0.11624028 0.07749931 -0.05736531 -0.035995208 0.060163822 0.122316055 0.042673703 0.07461959
UW2 -0.07923117 0.012445456 0.048838884 -0.051509023 -0.006106016 -0.029430304 -0.03224974 -0.07310311 0.017480504 0.15839271 -0.1615372 -0.03336404 0.0002551679 -0.01567627 -0.07015933 0.05044754 -0.059381492 -0.19849421 0.121130764 0.022804923 -0.038759284 0.08812849 0.10491329 -0.029199695 0.124182425 0.12591892 0.03892398 0.09167727 -0.12932575 0.011490282 0.02382488 0.04503894 0.08464945 -0.0801049 0.023868624 0.025546223 -0.014670693 0.06852193 0.014421752 -0.096901536 0.057060696 0.031289544 0.05505012 -0.13655363 -0.016880209 0.27564242 0.22092937 0.061889753 -0.062394507 0.013900637 0.0799036 -0.08541673 -0.1324722 0.055248417 0.09520326 -0.011978249 0.11116751 -0.008980217 0.12983194 -0.09787738 -0.10816914 -0.069883056 0.043573342 -0.07601938 -0.043105964 -0.093475565 0.13703436 -0.006345574 -0.18419334 0.07215156 0.115012586 -0.060512345 0.009519516 -0.07032498 -0.059617415 0.042959664 -0.020703953 -0.07615626 -0.03412648 0.16517152 0.034338612 0.10317104 -0.003677089 0.08230937 -0.0029787084 -0.018304199 -0.07435831 -0.14107482 0.18264505 0.2203424 -0.35363996 -0.05154385 0.10185001 0.14665331 -0.13355665 -0.086819336 0.08991613 0.18660049 0.015480015 0.035013545
AA0 0.023079142 0.015177382 -0.041325644 0.060865093 -0.04544312 -0.032904174 0.0065958053 0.00022156585 0.086889 0.063267194 -0.035028476 0.010725972 -0.03509237 0.027218306 -0.09849384 0.081438355 -0.06264344 -0.16948065 0.13490364 0.1428052 -0.021679036 0.14158195 0.15306972 -0.014046151 0.04499568 0.06978036 0.070943885 0.06622188 -0.16561364 0.107819825 -0.01649099 0.08076585 0.10936824 -0.11550713 0.021218007 0.050735034 -0.0044730464 0.09431082 -0.024443844 -0.13870324 0.110780545 -0.049391404 0.017353976 -0.12371193 -0.024567585 0.20106262 0.20286633 -0.0140474085 -0.010496997 -0.04024342 0.077702515 0.002132778 -0.09832268 0.1382704 0.17668705 0.014177956 0.11971827 0.058830235 0.021617725 -0.1513657 -0.105859526 -0.05479627 0.026797157 -0.009480157 -0.11639395 -0.096314535 0.16514234 -0.07898133 -0.19453962 -0.09279425 0.17674194 -0.060132053 -0.043540593 -0.02403076 -0.10123306 0.15080889 0.0091930665 -0.018375086 -0.050771933 0.10007737 0.14162877 0.1112224 -0.03357995 0.13121048 -0.0723835 -0.031294618 -0.0007696356 -0.11776782 0.20525119 0.26491237 -0.20019253 -0.09057185 0.0712485 0.1177322 -0.08425058 -0.0737594 0.071324155 0.16545635 0.023185741 0.07678838
AW2 -0.052348293 -0.014466337 0.017297085 -0.15032378 0.0637368 -0.020028539 -0.016324915 -0.09566681 0.09644003 0.115722135 -0.11358463 0.0033029555 0.027018417 -0.021315997 -0.054040685 -0.018438565 -0.107368134 -0.23935764 0.1565989 0.18296328 -0.04202141 0.0983032 0.15308043 -0.1181465 0.09266955 0.12998769 0.049144927 0.03578153 -0.12321942 0.03090909 0.046448793 0.08860612 0.035100576 -0.15337774 -0.037410546 0.029322028 -0.028725857 0.12107185 -0.025691966 -0.05986605 0.14033383 -0.115602516 0.056494903 -0.12942982 -0.009015696 0.27202877 0.13214251 0.01475409 -0.07700669 -0.088803045 -0.008279571 -0.14928792 -0.2236535 0.085839175 0.1252449 -0.034983788 0.06303214 -0.036434975 0.061272092 -0.1333905 -0.1437433 0.015502858 0.044438012 -0.10709148 -0.01170641 -0.12278808 0.15931264 0.04241758 -0.04461485 -0.019690095 0.21405505 -0.062412784 0.01613532 -0.060177278 -0.078795746 0.11123745 -0.028877102 -0.010805968 0.0031982635 0.14038874 0.057618205 0.098774955 -0.062497847 0.032687046 0.015392788 -0.07255136 -0.032154955 -0.156247 0.04519235 0.18923953 -0.27542883 -0.061492763 -0.015112873 0.053570256 -0.1110951 -0.006542439 -0.01210396 0.07453805 0.027902428 0.0023604266
ZH 0.030584693 -0.017593889 -0.007180515 -0.075632624 0.010261665 0.030784434 -0.13143669 -0.21937102 0.037764337 0.11623037 -0.10677009 0.045378093 -0.022920534 -0.07551548 -0.045099556 -0.028863067 -0.10062899 -0.23287772 0.12121617 0.27311066 -0.11055698 0.022461966 0.16618103 -0.06927029 0.15522726 0.12630081 0.11950888 0.042086072 -0.058992654 0.02301901 0.02721179 0.1441249 0.06704027 -0.10395303 -0.02718762 -0.030581221 -0.13029437 0.095614016 -0.03628926 -0.09793411 0.1428986 -0.03245183 0.042671192 -0.03578157 -0.08342394 0.22765541 0.11716575 -0.020198476 -0.020530477 -0.15730752 0.03692202 -0.066568054 -0.23041426 0.0011265192 0.08637174 -0.070254125 0.10955257 -0.1400051 0.040485345 -0.034759257 -0.17800324 0.03808792 0.11054121 -0.10824312 -0.010652472 -0.12736136 0.15402503 0.043480463 0.031440195 -0.041654397 0.093264185 -0.05343032 -0.06540742 -0.08351804 -0.07995916 0.047166824 0.037741683 0.067016445 -0.015422106 0.08549445 -0.052564807 0.10951393 -0.1058269 0.07326882 0.05207616 -0.059079066 -0.029777627 -0.22982702 -0.064786464 0.17271486 -0.18984579 -0.014916113 0.041678764 -0.008770382 -0.02622161 0.006793667 0.009126834 0.06261766 0.10358969 0.028239429
UH2 0.04230708 0.013551695 -0.023222767 0.09346697 -0.03044256 -0.002402129 -0.021454291 0.07352191 0.084412485 0.0609977 -0.07529041 -0.03626156 -0.002450734 0.0138730835 -0.13935065 0.15589276 -0.009626694 -0.21343403 0.19030753 0.06619207 -0.03209554 0.14937405 0.14348382 -0.019071246 0.05589025 0.062574595 0.051005907 0.05096874 -0.2039004 0.0782361 0.0040583974 0.043459326 0.14219664 -0.14916208 0.06480224 0.07658151 0.03037852 0.110692136 -0.068563476 -0.119185075 0.030763812 -0.039628673 0.02900063 -0.17183736 -0.016539456 0.16804369 0.23536667 -0.034143776 -0.042942252 0.01955864 0.10930675 0.022558557 -0.05151045 0.11925848 0.121983826 0.034305673 0.11398894 0.057154194 0.028120358 -0.08251631 -0.022623457 -0.049528074 0.021008957 0.013829484 -0.022258297 -0.04412882 0.17968155 -0.0716545 -0.19180484 -0.06492837 0.16770127 -0.0389549 0.06272769 0.044694893 -0.046106882 0.06636709 -0.032617338 -0.08420979 0.010934614 0.10739208 0.12389803 0.111386664 0.047569774 0.12475591 -0.0852143 -0.010467901 -0.025579836 -0.10679916 0.18710001 0.23116116 -0.22325546 -0.049975015 0.07816762 0.15644684 -0.105720624 -0.08951705 0.1172952 0.17319061 -0.043027557 0.07884226
EY0 -0.040070627 -0.001671294 0.020650575 -0.11653965 -0.003733574 -0.008695153 -0.041706324 -0.13195197 0.036235813 0.1695573 -0.11368484 0.024709271 -0.0637772 0.0051449477 -0.05143026 -0.009077782 -0.09724082 -0.2824119 0.1285929 0.20828298 -0.03735435 0.111752376 0.20182851 -0.073850185 0.12669036 0.109022595 0.09941454 0.067038156 -0.1347646 0.08803478 0.00057715824 0.17047764 0.08212443 -0.082242884 0.004566198 0.06376457 -0.060951177 0.13216749 0.012521184 -0.08688426 0.18350917 -0.1112284 0.014308426 -0.152594 -0.05841925 0.25150353 0.16901283 0.017642466 -0.021327507 -0.05004989 0.07670036 -0.09219698 -0.14260104 0.08785581 0.13286065 -0.008028695 0.07017167 0.032118183 0.065260805 -0.1414296 -0.11223695 -0.04319506 0.033840578 -0.021895252 -0.090797685 -0.0985418 0.13853484 -0.031556256 -0.10761731 -0.03567267 0.14515013 -0.067397006 -0.069663264 -0.0022939984 -0.046843596 0.07339358 -0.020538764 -0.010481197 -0.02821709 0.12292417 -0.00111196 0.050277494 -0.038921375 0.09337734 -0.021199666 -0.027481107 -0.0034014676 -0.16333531 0.12387883 0.18108365 -0.19711007 -0.1057472 -0.026600977 0.099273585 -0.06609088 -0.03933137 0.010502887 0.12232331 0.06648961 0.08345272
OY2 -0.02790127 -0.0074968725 0.02344833 -0.14262725 -0.04654727 0.003037351 -0.08035197 -0.23570713 0.095170185 0.21263431 -0.145576 0.07335939 -0.07756973 -0.030618975 -0.033842415 0.03184933 -0.09196207 -0.25317264 0.11675242 0.21163173 -0.080669135 0.051902793 0.123651944 -0.049229797 0.13004896 0.13453147 0.09399036 0.065483436 -0.06891638 0.094998196 0.013916054 0.14037965 0.07130091 -0.07570223 -0.011367473 0.07136459 -0.080147445 0.10291659 -0.022089245 -0.08028882 0.13628466 -0.009294084 -0.021010738 -0.048008583 -0.04170314 0.2533384 0.17335425 -0.0016680136 -0.011779674 -0.082199335 0.050458837 -0.044881288 -0.13856883 0.07524956 0.102956235 -0.015504993 0.12539922 0.0024633897 0.022575878 -0.1247717 -0.10348585 -0.04356904 0.04450222 -0.021301668 -0.0997985 -0.11193914 0.14797151 -0.03454835 -0.12322866 -0.034410153 0.101764694 -0.033803135 -0.048583098 -0.048314355 -0.037144553 0.09002399 -0.0061349124 0.047788426 -0.04344007 0.12901014 -0.004555712 0.08558667 -0.04038118 0.11556508 -0.014132383 -0.017321005 -0.008807488 -0.18016188 0.11709696 0.1975272 -0.22583467 -0.062219933 0.018115988 0.12535457 -0.07105839 -0.06790908 0.044761494 0.15146871 0.07799986 0.06979638
